1.475358803433072808e+03 2.975026053314390992e+03 2.675627894941335853e+03 3.179033954557622110e+03 3.608255931913862241e+03 2.488413965520773672e+03 2.365097630375731114e+03 2.783195355276151531e+03 2.675890015491248505e+03 9.119373254704821647e+02 7.960228292483582209e+02 1.063784408723343404e+03 7.620103803656394348e+02 9.332257435642884502e+02 4.833970185391178802e+02 1.430984658800269699e+03 1.148409619684127165e+03 9.051663022348037657e+02 9.738915596739659009e+01 -5.404009774553871637e+01 2.550187964682960740e+02 9.757281569551613529e+02 1.166822577855866484e+03 1.646467216797353501e+02 1.301623169188851534e+02 3.659007549029747679e+02 3.652150506410656590e+02 -2.027242045220229727e+02 -1.436027755812754236e+01 2.020825435595369015e+02 2.909347518778116637e+02 3.582033978484899990e+02 1.147525153532124705e+03 2.320106172990704181e+02 3.205713590432588944e+02 -1.761755652945832935e+02 1.155750113765166361e+03 1.235638787150008056e+03 1.069277722200674589e+03 1.060748940823893918e+03 1.606422232654795152e+03 1.624763811609140930e+03 1.262502227649424867e+03 1.325759863803015605e+03 1.278920217034778261e+03 -9.587734026012941513e+02 -9.852699714047337238e+02 -8.652678651713986255e+02 -3.890375131061829848e+02 -3.133912774168410920e+02 -3.927937006598276071e+02 -3.562028011718147695e+02 -3.597206114343950958e+02 -2.133973249389462126e+02 -8.428153585957369387e+02 -8.831282418531487792e+02 -6.527413841256409341e+02 -4.657134155825428934e+02 -3.053953761632347437e+02 -5.864913153178799803e+02 -7.957055516003073308e+02 -1.039857099897203625e+03 -7.229956856255051889e+02 3.204251739765091145e+00 1.531848673356498836e+01 4.657889865751691900e+02 1.901699145317451496e+02 1.065628525185627723e+03 8.709241479346355845e+02 -2.178675165629893797e+02 7.490779572204289707e+02 5.781386148349865834e+02 -1.378063358171675873e+03 -1.128533698639014347e+03 -1.135744559812510715e+03 -9.588996565291795378e+02 -1.267266978854391027e+03 -9.979674223322556372e+02 -9.501397425600040378e+02 -8.567187013791689196e+02 -1.379362187217574501e+03 -2.677805325807249574e+03 -2.489149971174699203e+03 -2.348757560177722553e+03 -2.118414460071744088e+03 -1.616859544676722635e+03 -2.270530061091641983e+03 -2.491773171550462848e+03 -2.334790869543031476e+03 -1.969923553419457903e+03 -9.566547136271965428e+02 -6.498009485186344136e+02 -1.787863479325164349e+02 9.790485051476694025e+02 8.317835323697654530e+02 -1.130929037269327409e+03 -7.813401383408028096e+02 -4.045246570905556496e+02 5.354644087857370494e+01 2.205858688242024982e+03 1.354946201984992058e+03 1.480128100548893144e+03 1.107158182318404215e+03 1.029657294799539159e+03 1.845206690098305444e+03 1.139847845639339994e+03 1.826133342654819899e+03 1.170458260567637126e+03 2.536321706169753270e+03 2.546747951547523826e+03 2.785554344322845282e+03 2.558856694038339356e+03 2.549137298560709496e+03 2.516165362061693486e+03 2.812287882064097175e+03 2.763164073656399978e+03 2.375594418562193823e+03 2.077058972106883630e+03 1.884480555257735659e+03 1.995215944554115595e+03 1.913135403539378103e+03 1.775993240314345712e+03 1.198607316418862183e+03 1.276765247080946210e+03 1.123543590529373205e+03 1.128550297853455930e+02 1.838181919132018436e+02 -4.847516463254972905e+02 5.305946886573053689e+01 -1.979838299998266962e+02 -4.732340010744751453e+02 4.667016766066664673e+02 -2.001250441764034349e+02 -4.434179279165300613e+02 -1.471600038400159178e+02 5.598524818282040769e+02 8.019875918634563732e+02 1.167644335246054879e+03 3.800739784251677975e+03 3.546158575203204691e+03 7.652021799424310302e+02 9.904182261179237230e+02 1.186174314319344830e+03 1.303136087637212086e+03 9.365750558579493372e+02 3.283369506067949715e+02 -4.575715438782013393e+02 -7.732453320872305085e+02 7.048956615329042279e+02 -1.382673629648708356e+03 -7.404544432389506028e+02 -1.152163271759483678e+03 -9.459914243423729658e+02 2.191283672626895623e+03 2.049506575121391506e+03 2.174706399084833265e+03 2.301444005364419354e+03 2.068706823375096064e+03 2.305496402655949623e+03 2.407408111954375272e+03 2.213725945571699413e+03 2.037649215640999046e+03 2.165756926914091309e+03 2.405572306674348965e+03 2.889168276900691126e+03 2.593952680049289029e+03 2.588919533388549098e+03 2.365783354906012391e+03 2.304550580377110236e+03 2.484387673615076892e+03 1.047945557502600423e+03 -2.668611346175028302e+03 -2.798302955628097607e+03 -2.495511768315308473e+03 -1.958070091195647592e+03 -8.116099876076427790e+02 -2.075279450979826379e+03 -1.388997005548797688e+03 -2.220900638452891599e+03 -1.580230155128161641e+03 -2.059838093207690235e+03 -2.248308765228948232e+03 -2.386725433005513878e+03 -1.646882712494881616e+03 -1.799325483237260869e+03 -1.582840133351469831e+03 -1.726601930191608062e+03 -2.150042125211287839e+03 -1.855183939953504250e+03 -1.717683611604777752e+03 -1.348302474045202871e+03 -1.827383216706035228e+03 -1.538725770894735888e+03 -1.056601823636597828e+03 -2.320584668598804910e+03 -2.139937565147821715e+03 -1.840018879620876987e+03 -1.687291402026526612e+03 -1.399792152108674827e+03 -1.395974612470729426e+03 -1.965014316926341280e+03 -1.747244795065147628e+03 -2.000489632271925984e+03 -1.643127832007201505e+03 -1.653311511499837707e+03 -1.649290105472199684e+03 -1.383049753264929677e+03 -9.298434179083137678e+02 -9.979084907973581267e+02 -1.492944195494879523e+03 -5.452939985725772658e+02 -7.397736204847199133e+02 -1.213029004163186301e+03 -4.141767256727109725e+02 -1.617377549856009864e+03 -1.583683073432794799e+03 3.577959553209657315e+02 7.270184281785469693e+02 7.435137603983831696e+02 1.140943700258875197e+03 1.369519628318608966e+03 8.986895376276124807e+02 9.519603156602501031e+02 1.364259547655339475e+03 1.016531851201247832e+03 1.898305209340541069e+03 1.815693039448817899e+03 1.860246670201148390e+03 1.415391731627624267e+03 1.219859290557185886e+03 1.664207784063358076e+03 2.259521149237699319e+03 1.110641837517768636e+03 1.153702332533079016e+03 2.049599690329000623e+03 2.423787489302473205e+03 2.384338548146443827e+03 2.263116001474432323e+03 2.046781611396496601e+03 1.342295682137883830e+02 -4.598499108583519046e+02 2.176458507294567255e+02 7.232524384935510398e+02 2.037052493010600529e+03 1.404965419898077926e+03 1.663752390544532545e+03 1.225531711105672230e+03 1.557025611337891405e+03 1.681659957294254582e+03 1.592370515972322664e+03 1.787547249607744789e+03 1.428197989664165561e+03 -2.914619501207274425e+03 -2.916646863207139177e+03 -2.905471211253523961e+03 -2.473025931205533652e+03 -1.926824822611130458e+03 -1.640004011775818071e+03 -2.193924282422796750e+03 -2.425324244581562198e+03 -3.195554192084161514e+03 -2.274285959045724212e+03 -2.701274219441771038e+03 -2.670830580654253936e+03 -2.799484071851436966e+03 -2.977621825884234568e+03 -2.324642813251728967e+03 -3.216701826202368920e+03 -2.690803289871709239e+03 -2.692301613101687963e+03 -2.149737152198003514e+03 -7.271381157013778420e+02 2.390560031695562770e+02 2.296722839983614222e+02 5.274360053191454654e+02 -9.354856288332454142e+02 -2.455281503878598414e+03 -1.611119949761942962e+03 -2.062693761554443427e+03 2.241893926192612525e+03 2.596111658964902290e+03 2.444993848098506078e+03 2.447553581510354888e+03 1.799079918238514892e+03 1.349802811154108895e+03 5.185753004518659282e+02 2.094824944206292912e+03 1.608255863322650384e+03 -2.942559773440013032e+03 -3.011783280084930539e+03 -3.094377358914728575e+03 -2.967650316316156022e+03 -2.844690180168374809e+03 -2.571611457677577164e+03 -3.080140213769475849e+03 -2.738575892528260283e+03 -2.746250332183750288e+03 -5.145569739087590051e+02 -4.402294721591190410e+02 -3.012742190070093784e+02 -3.120751739182260280e+02 -1.197525469575868726e+02 -8.544219009791702319e+02 -9.710344193476956320e+00 -1.082264754408290855e+03 -1.325239849013103822e+03 -3.884304902695258761e+02 1.988404433605177530e+02 6.422571797520631662e+02 3.458898804965488694e+01 1.747471759062892943e+03 1.194448566589394432e+03 1.518184910721375445e+03 5.961813466282200125e+02 1.723284530836891008e+03 5.249039885567899546e+02 -1.502104971434996287e+03 -1.268309966433549107e+03 -1.292334241436064303e+03 4.534538876344868754e+02 2.004661181882438541e+02 -5.500254549233931129e+02 -1.173644761677144061e+03 -5.653890386197151656e+02 1.789985137453122206e+03 1.546016957801970648e+03 1.917134704571542670e+03 1.690017630938139746e+03 1.153252839969052729e+03 1.472747511988315182e+03 1.731998787957764307e+03 1.057527493320091253e+03 2.078427729580056621e+03 -1.735775021970281387e+03 -1.769399403291248291e+03 -1.558471885894645766e+03 -1.144612963981922348e+03 -1.805366984914917566e+03 -1.965726982230549993e+03 -1.622249295781356068e+03 -1.807980371789413994e+03 -1.160740135737820765e+03 -2.209017209998777162e+03 -2.511607002140425266e+03 -3.046459308767483890e+03 -2.785518100031231825e+03 -2.634471662548497079e+03 -2.679803800419992513e+03 -2.674389818778127847e+03 -2.452627955369935535e+03 -2.781580396932496569e+03 7.001945797490302539e+02 9.225670021193088814e+02 8.480340254674414382e+02 6.161703526127016630e+02 1.092947296410494118e+03 5.748694399400706061e+02 1.051357054416106848e+03 7.659586659705279317e+02 1.314130917802048089e+03
-1.184816534322333609e+03 -9.792559640199069690e+02 -5.810254668160810070e+02 -1.361443755882962250e+03 -1.034804686359629159e+03 -1.317292048054455790e+03 -9.297526658232762884e+02 -5.928576848103417660e+02 -1.355785464914695467e+03 6.486432512272792792e+02 5.626918501345148798e+02 6.944721497717474676e+02 7.334460203155749696e+02 4.429351325199897360e+02 6.009903090737253706e+02 8.399894260986985728e+02 7.748241106888286822e+02 1.265821699016167031e+03 -4.457790669402701269e+02 -6.384213033307454452e+02 -6.323238575150586485e+02 1.574098592566046477e+02 4.650158033654955716e+02 -1.446551425406004000e+03 -1.200655503668313486e+03 -1.146814117285347720e+03 -1.339736448666785236e+03 -6.285908772394478774e+02 -3.256488908320440601e+02 -1.629079578286707317e+02 -1.386582033682767587e+03 -1.352077650811659396e+03 -8.296561490993245798e+02 -1.239800281240939285e+03 -2.858082257116897154e+02 -5.869204680570761639e+02 -4.088166154159339385e+02 -5.488001507668012664e+02 -9.178902229388261276e+02 -1.970270149825892361e+02 -1.932431266668658282e+03 -1.722653550352087905e+03 -1.876022872024519472e+02 -1.790793826962726598e+03 -1.935749341897427712e+03 -2.225676231340229606e+03 -2.027134824135803910e+03 -2.282238038145419978e+03 -3.257300579507799739e+03 -3.566640008087011665e+03 -3.555600989133571147e+03 -3.568442416942655200e+03 -3.598814291933108052e+03 -3.395315446015141788e+03 -1.219394076311946492e+03 -2.186089988813263574e+02 -1.409758295691240846e+03 -1.473053015017357438e+03 -1.550828379418759368e+03 -8.614177740160853318e+02 -1.425301297175086802e+03 -1.234147853771211203e+03 -1.210612942386224177e+03 -5.376718596978853384e+02 -7.262633432053189608e+01 -1.531295983373972149e+03 -5.073795886319099395e+02 -9.567722447830843748e+02 -1.173899428248636013e+03 -6.050423561502409484e+02 -1.456556036266621049e+03 -9.800179413702907141e+02 -7.750199392051537188e+02 -8.380382189448345116e+02 -6.482742531480998878e+02 -1.204603843291725525e+03 -1.448072445589472409e+03 -1.118134042820650848e+03 -1.023667861177859436e+03 -1.539233403599231451e+03 -1.605564405909998186e+03 -8.820412255697159480e+02 -1.278886268433078612e+03 -1.459299884483977849e+03 -1.371241368710544521e+03 -2.194571774541586365e+03 -2.818861194447855723e+03 -2.302429670570507369e+03 -2.059510884706116030e+03 -1.260961419710860355e+03 8.012567016414927821e+02 1.114645501492739413e+03 1.046991564795697741e+03 1.600752394489929429e+03 1.460438508802465094e+03 6.612228771784194805e+02 8.383775857879163595e+02 9.188439461896666671e+02 1.303928056984767863e+03 -1.351723122235058099e+03 -4.380388774578503330e+02 -1.277194201220054595e+02 -1.797191973048857676e+02 -6.604575355981794473e+02 -1.214023307124935627e+03 -4.906409770120577036e+02 -1.402821422512201707e+03 -1.580780567224908737e+03 2.567724573943755217e+02 3.845923551337328945e+02 -2.065717537051857278e+01 1.100746515804484602e+02 -4.846792521764234607e+02 -5.774566955119933027e+02 -6.657994695685711122e+02 -5.943879843035205113e+02 -8.153097514733136677e+02 2.939616427121011384e+03 2.846630232125996372e+03 2.839841517495093285e+03 2.878211449910679676e+03 3.278090156873978231e+03 2.347964937640592780e+03 2.729618242644609381e+03 2.568086478532738965e+03 2.152963020579862132e+03 8.277602138189066636e+02 -3.094143629669136430e+02 8.929400983202455109e+02 7.685322479482712197e+02 -8.776508901070158686e+00 9.678230733183056600e+02 1.160258596861267222e+02 8.581622084719846271e+02 3.727178905696393940e+02 1.742524091103065530e+03 -3.706033048998019694e+02 -3.449407523048600979e+02 2.665403175279812444e+02 2.223235311579583424e+02 1.059129646502521382e+03 -6.511595613940193061e+02 5.044586001320322310e+01 3.554209347441762645e+00 -1.505040854593659674e+02 -9.313745186419106403e+02 -7.428984394838857952e+02 -8.270722108726872648e+02 -4.765801628612509830e+02 -1.527974035697739737e+03 -1.638784052528691518e+03 -1.779683967917714426e+03 -1.689241249814510184e+03 -1.733891718169958267e+03 -1.353671236732575380e+03 -1.143592107952254310e+03 -9.136911753745022224e+02 -1.329425711203651645e+03 -1.555052715091151867e+03 -1.496304100351373563e+03 -1.240922057211568017e+03 -1.895517131350295585e+03 1.323588447151633090e+03 1.435438164204763098e+03 1.501389541540375376e+03 1.057516361273015946e+03 1.048722925147058277e+03 1.835208935855246409e+03 1.322343223090727179e+03 1.212215918995451148e+03 5.078693413919246495e+02 -1.786958955992048459e+02 -2.284424501243636598e+02 8.083831848860151581e+01 -8.352945952476000002e+01 -9.724388677581869160e+02 -2.952984191332903663e+01 -1.432831300047562991e+03 -1.616589061408565385e+03 -1.903313620903679748e+03 1.956149746613581044e+02 5.511033268386058808e+02 6.391837904131384676e+02 -3.562852949877430433e+02 -5.954525954289191532e+02 -2.587968741172036857e+02 -6.937106923623937291e+02 -4.868061239785188832e+01 -4.593490564720826796e+01 2.671679310642179644e+03 2.887306538561555499e+03 2.321611245253905963e+03 2.651212763097511015e+03 2.817036444130724249e+03 2.574894088940257461e+03 2.271650808630154188e+03 2.721420263728006375e+03 2.900620353916496242e+03 -1.942453737504640003e+03 -2.113875976835435722e+03 -1.047225254718758151e+03 -7.523292951305872975e+02 -1.007775764508878865e+03 -9.314561741974270035e+02 -9.275919561707036110e+02 -2.028073568130241711e+03 -1.606821896219113114e+03 5.813402467362036674e+01 1.194436970247389667e+02 1.012028330772895117e+02 4.160883072353468037e+02 1.140576883433988087e+03 2.320625028365828086e+02 2.552120865961194340e+02 4.990528118731140239e+01 2.517456882565655576e+02 -1.145570748389426399e+03 -6.763569985340923267e+02 -1.240612599166308655e+03 4.725070500035018881e+02 5.866036383003901165e+02 -5.248627330760762106e+02 -9.020528332401481748e+02 -2.111569942019471000e+02 -1.239194124621576947e+02 3.213422334540199472e+02 -3.829625818807835458e+02 -1.691003971785387989e+02 4.923568774825128713e+01 3.238337355583513499e+02 -4.938125071375769721e+02 -1.942413913252643098e+01 -7.842952333527824749e+02 -6.549486968117662400e+02 1.413079043751368999e+03 1.311783495853250997e+03 1.242004249277079225e+03 1.222789560468317177e+03 1.176954334189861584e+03 4.030095610799122596e+02 2.733542420878256962e+02 5.168499188642474564e+02 7.700589973627076006e+02 1.449314509558939790e+03 1.524199940105149608e+03 1.445692763202382366e+03 1.780184786900254721e+03 1.790245168010450243e+03 1.375918478126916625e+03 1.664094667735402709e+03 8.106049054080557426e+02 1.018408886331103986e+03 9.790291570310491807e+02 8.397553277586000604e+02 1.254125989719805148e+03 -2.043096807681853022e+02 -9.378496942370941269e+01 -1.071416687885544832e+02 -2.743108784365708175e+02 -1.227253107121123179e+02 1.750610433925595544e+03 -2.248672390778433225e+02 2.704029215565263371e+02 -3.392521085791507289e+02 6.333123427059258574e+02 8.035178707156979954e+02 -5.503742988095646069e+02 1.632137669854857336e+02 5.131353882497251107e+02 -7.283900095441539406e+02 -2.077194440834397540e+02 1.447517039108836116e+03 1.924091823867248650e+03 1.981475553890847550e+03 1.937971760870811295e+03 7.227780022060496776e+02 -6.406036514008350480e+01 2.126648153510873556e+02 -2.972927408863603205e+02 -3.944033205608455432e+02 4.571584349270805205e+02 5.085704721994657689e+02 1.097053610792520288e+02 5.598038669661558941e+00 8.504214803132263967e+00 -1.818633215908812133e+02 2.323317238918448311e+02 6.071354085682567359e+01 1.256473775668511735e+03 1.479386493831049847e+03 1.355557016801791860e+03 1.478414244410874517e+03 5.299212927324034581e+02 3.006478803962263555e+02 5.843927863418263087e+02 5.781063976167544070e+02 4.340491348253312367e+02 3.118110456074447939e+03 2.951498980886751724e+03 2.864871911712958081e+03 3.252757898289110472e+03 3.664910264151395040e+03 3.121151804991826339e+03 3.707102983849574230e+03 3.020278529770094337e+03 2.836930631388851907e+03 -4.992186817807505577e+02 -2.874923795227198298e+02 9.380273231362930346e+02 2.604362377617730999e+02 -3.253475692804639721e+02 -5.776483613388327285e+02 9.792836792618868458e+01 -9.395109262717264755e+02 1.591121895296903404e+02 -2.140235588072077007e+03 -9.603542653324542471e+02 -9.712800843576056877e+02 -9.999567278281781455e+02 -1.811660946955734062e+03 -3.714571526228170342e+02 -7.120452346013192937e+02 -7.294651583334069755e+02 -1.062012713855997390e+03 6.027932995511599756e+02 2.707826444644806088e+03 7.475197008483967238e+02 2.727755111540482176e+03 2.741253745328493096e+03 2.643610175594569682e+03 7.962046467508623664e+02 2.411697298400788441e+03 5.517203713696718523e+02 -1.277685350200839139e+03 -1.057982489807471893e+03 -4.192067381321695620e+02 -1.243365631368867753e+03 -8.343272495993725215e+02 -1.430827972419944444e+03 -8.912312110447313671e+02 -1.670250820714718657e+03 -1.143063253679295258e+03 2.728102870668852120e+03 2.839466570595869598e+03 2.923867791535473316e+03 3.112841115444382467e+03 2.149862457492085014e+03 2.765097824878173924e+03 1.348079951618326731e+03 1.309181636577347945e+03 1.982760971762299050e+03 -9.971934679610333205e+02 -1.617292341313054749e+03 -1.860500507135535372e+03 -6.755593754414444163e+01 -1.665487449208659655e+03 -1.097130037408550606e+03 -1.364150813304337362e+03 -1.020359573738992140e+03 -1.365411709730732355e+03
1.904461680068763371e+03 -3.487513334285309838e+02 1.073123764652585123e+03 -9.447458661504155941e+01 2.308752964707497313e+02 1.133193111731092984e+02 1.231314908487496041e+03 1.147903935514606019e+03 5.460671464406774476e+02 1.393512955455615156e+03 1.646687377557467698e+03 1.343483316133519793e+03 1.592184541753059420e+03 1.421774776100267218e+03 1.549682538741792996e+03 7.178153120175206823e+02 1.183584759608979994e+03 1.016878655458673279e+03 -5.500777123081363698e+02 -6.513657767628084230e+02 -4.270959844986908251e+02 -7.437711907031399505e+02 -1.069315575872515410e+03 1.602458926327055337e+02 -2.019255531525070637e+02 -8.050159416696492087e+01 1.931174001432888190e+02 -2.775619431115508746e+02 9.977979406619992631e+01 -2.608178969642547145e+02 3.990593368503038505e+02 5.010938757099754071e+02 3.932710725041512205e+02 3.078602846415778913e+02 -2.725217643492245756e+01 2.445024631541100035e+01 -1.973559357580835012e+03 -1.632233889616130455e+03 -1.557383112174201642e+03 -2.019617982865970362e+03 -1.139040901106764295e+03 -1.225330627961161099e+03 -1.923923120377291298e+03 -9.405642253213642334e+02 -1.041366075893701691e+03 -1.345158317314658234e+03 -1.483418187220138179e+03 -1.233796677642053055e+03 -8.824782897279172857e+02 -8.604498753382046061e+02 -9.192564044400969578e+02 -1.079815242655050724e+03 -9.488880628647499407e+02 -1.308624905895664824e+03 1.176705178061345123e+03 1.112545705482421454e+03 1.325341015658136257e+03 4.914197217774210458e+02 8.555863382027488342e+02 1.208195353877029902e+03 1.281987265076044196e+03 1.043822568841894281e+03 1.364577995534574256e+03 1.086824337471754006e+03 1.044140434178042597e+03 1.833006067771728567e+03 9.642524236504792725e+02 1.770045428150417365e+03 2.065446863962898078e+03 8.574569394388598766e+02 1.784337489337233592e+03 1.625791201816289686e+03 -5.796440305514078091e+02 -7.017146300954228764e+02 -5.411872338812538601e+02 -3.298092073677198641e+02 -4.996360802233469371e+02 -6.506278601283236185e+02 -1.018530706251774632e+03 -5.372788193600209752e+02 -4.384962292514438218e+02 -1.287050585633308231e+01 6.387490146861846370e+02 8.275435730806656238e+02 6.077804417372631178e+02 1.526165493478923054e+03 1.060102921923304393e+03 9.824608752398536353e+02 1.330908552508590446e+03 8.698427359308035420e+02 1.624635970152720347e+03 1.164458726850370567e+03 1.595570043861233671e+03 1.458779309652477195e+03 1.465299528479623859e+03 1.325999587653743447e+03 1.761851318037514147e+03 1.736506096601383206e+03 1.548701595883941536e+03 5.173479188763797083e+02 -6.897827147210360863e+02 -9.361242453277897084e+02 -8.731538960019936439e+02 -6.217897075872124333e+02 6.583059386065660590e+01 -8.547337050752181540e+02 3.062368900593893386e+02 1.016503794661781228e+02 -1.673581954551402305e+03 -1.895539293259078704e+03 -1.611444177063450525e+03 -1.671230840857662088e+03 -1.078781607870839480e+03 -1.164186103812817464e+03 -1.138374484999346805e+03 -1.083130251570692053e+03 -8.361732872574249313e+02 -7.475064556618755205e+02 -6.405921371349113542e+02 -6.599122611553036677e+02 -7.278999481945076013e+02 -1.259847659544333965e+03 6.650603099876653914e+02 9.124091409882576897e+01 2.159920904525295384e+02 7.101179683791659727e+02 1.210426987732093266e+03 -1.080032162039518425e+03 1.326231966677352375e+03 1.227216955307166472e+03 -9.771913771736076342e+02 1.089247277974044891e+03 -1.043922565247928105e+03 1.079887551231615589e+03 -8.727771316138772590e+02 1.726295781980164293e+03 1.758464227518539701e+03 1.436814252968243636e+03 7.420279956513321622e+02 8.407273124767605168e+02 1.653220633463009563e+03 1.601272112202355856e+03 8.461507306976205882e+02 1.210030693589647626e+03 1.109915713595600891e+03 1.153470541903217963e+03 8.827184566927770675e+02 8.360846698372051833e+02 1.249817016467420217e+03 1.459687827711328282e+03 1.457428499756464134e+03 1.621683916074299759e+03 1.410708323732955932e+03 -4.788471108781920975e+02 -9.621265884500946868e+02 -1.342092810325223581e+03 -9.650638641696851892e+02 -1.012428846727222549e+03 -5.663128377981988706e+02 -4.623999733674349386e+02 -1.155847817046252658e+03 -4.962559996527533031e+02 1.204037646026677294e+03 8.982175597057077994e+02 7.206126767834317661e+02 1.479536036819429000e+03 1.582533752588339212e+03 4.337742478822858629e+02 1.160838098361931316e+03 1.221103624007449980e+03 1.972651684293805147e+03 1.145101455041231162e+02 2.337384820350799330e+01 3.659180320054221056e+02 4.745418842299540643e+02 1.070645649948324944e+03 2.918917308107724011e+02 6.494453145784266326e+02 2.527844997448956974e+02 4.953631224491915646e+02 -6.674012383915199962e+02 -9.061733231594570270e+02 -1.189731091802965693e+03 -6.514939045216368640e+02 -5.781272615417129828e+02 -6.626145778480566833e+02 -3.310718598101634598e+02 -7.788439758729731466e+02 -7.865601365188144882e+02 4.704205367989137443e+01 -2.610067071344133751e+02 2.751444431844917915e+01 -4.744761213865916716e+01 -5.597391276572210472e+01 -1.652542563470273649e+02 4.873369957302724487e+01 -8.042226111285530976e+01 -3.362327975200699370e+01 -1.725573130180609098e+02 1.203665218960823324e+02 -8.289200046769759638e+02 -1.210803279300154600e+03 -7.855218640596802970e+02 -1.076669674569589461e+03 -5.419383032151390580e+02 -5.172674886362380420e+01 -3.659740335930690094e+02 1.962499338874979230e+03 1.878874262750609205e+03 1.273339350579669599e+03 1.624578113662322721e+03 1.539439483017573821e+03 1.678814382256228782e+03 1.899420815083949719e+03 1.501217648289163435e+03 1.538472451437897689e+03 -1.020541943230081074e+03 -8.656957461336902497e+02 -7.114059254291330490e+02 -1.656203893497899344e+03 -1.715306466200109753e+03 -1.008223659808665502e+03 -7.198662463687768422e+02 -1.107053858125673969e+03 -1.056256323225358983e+03 -1.123581274657442691e+03 -1.412563449226043758e+03 -8.779172426194235186e+02 -1.604672126812192346e+03 -1.647545764476852128e+03 -8.155240007992046003e+02 -6.435471971043351687e+02 -1.224247295471168627e+03 -1.152553904197861584e+03 1.219556768688191141e+03 1.234462971562743405e+03 1.371936981558702200e+03 1.365828587288684957e+03 1.445668786088519028e+03 1.798991974236107126e+03 1.438081529025790132e+03 1.798154873583217750e+03 1.747239560105696683e+03 -1.371939074808725081e+03 8.450595319351600665e+02 -1.474417939215411025e+03 1.742496568382055102e+02 6.427922346254232480e+02 -1.413627377206367328e+03 6.186978269991046773e+02 -9.797937619294119713e+02 4.738683083597350105e+02 -8.618287911379682100e+02 -9.680961187644905976e+02 -8.557210322773918278e+02 -3.158767941347333590e+02 -3.316543879579627401e+02 -1.474502140133087948e+02 -2.854714233026089119e+02 -5.718918814775872761e+02 -1.039420256776378210e+03 4.972716586281112683e+01 -2.082369663647378388e+02 -2.845130032698420450e+02 -2.404141408725866427e+02 -7.346771572260086032e+02 1.524620353914906445e+02 -3.431045994716241125e+02 -1.549886229769098804e+02 6.508571916369301391e+01 -8.690634710061556234e+02 2.203012674777863253e+02 -3.765915528918075239e+01 -2.363448504466314830e+02 -4.534540090370485359e+02 -4.684986934389008866e+02 -8.826603026931616114e+02 -6.908427911675543101e+02 -6.340513806443087788e+02 6.547923267891198975e+02 3.660579537543376318e+02 1.684272251793159967e+02 5.414514160831291747e+02 8.155417578708473911e+02 1.252928708413102413e+03 9.783934359372026393e+02 8.616630787478380853e+02 1.168865025448725646e+03 -7.481348671747689423e+02 -6.980943369363387774e+02 -7.938742511511973134e+02 -8.360430618519619657e+02 1.338958288225485092e+02 -2.039447331810098660e+02 -4.809850522306488330e+01 1.361062081749374499e+02 3.114002489753223557e+01 -5.393987256340266185e+02 -4.427294804022228050e+02 -4.437323906397808742e+02 -8.118519149653321847e+02 -1.365485110836151762e+03 -7.062226964539688367e+01 -1.611247538184141149e+03 1.740722632146051865e+02 4.132837338442755026e+02 -2.035179776581213218e+03 -1.410839400864125764e+03 -1.140641108862880401e+03 -1.502971819295591558e+03 -6.995826215835952553e+02 -1.836897489171251152e+02 -2.299937479426382936e+02 -5.310430242113425265e+02 -1.034997945546256688e+03 1.234416119315517790e+03 1.224561431012311914e+03 1.421052467670356464e+03 1.389852955049948378e+03 1.087087905549611378e+03 1.752081092925856638e+03 1.602546896602189690e+03 1.359790453438757368e+03 1.595995085567238903e+03 -1.610564645795044953e+03 -4.002650022714488500e+02 -1.738033324627231877e+03 -5.215037835757254925e+02 -3.034429801995390790e+02 -2.989994113160454958e+02 -1.533508468010129263e+03 -1.367764097854250451e+02 -1.376995492765633344e+03 -4.424287105855218556e+02 -3.483781552517518776e+02 -5.972801290937793510e+02 1.923151832345178889e+02 -3.431901521308573706e+02 -6.141174427720507083e+02 -2.856584652832604547e+02 -1.457310541824350594e+02 -2.225310453739754450e+02 -8.639947356677296284e+02 -8.406041056409393377e+02 -8.397228823541637439e+02 -6.365067870208011982e+02 -8.978338094420606694e+02 -9.511307290837843311e+02 -1.101567706215171484e+03 -1.089970325230162189e+03 -1.327426064915059214e+03 -1.615780648074583041e+03 -8.783894792732108954e+02 -1.063763405578505626e+03 -2.117023611568793967e+03 -9.332948330948377134e+02 -1.552973077999525913e+03 -1.059664805923086533e+03 -1.549087182498621587e+03 -7.766772030116221686e+02
1.200153466597506622e+02 9.358736774176466042e+02 -1.671880899268552696e+02 2.700863889369066783e+03 2.079206476247772116e+03 1.520657468560204507e+03 8.530570508496473394e+02 2.048733102994892761e+03 2.593506983994449456e+03 5.521407061974048247e+02 -1.478226743283545090e+02 9.283867878900483106e+01 -8.394514524490965357e+01 2.839185874576361925e+02 -3.913308364114350866e+02 4.379803136579034799e+02 2.218537215697762406e+02 -5.737510761183360728e+02 -4.209453017325099609e+02 3.282904067030070792e+02 3.145219353618334708e+02 -1.245848487924311712e+03 -1.311638103472340617e+03 -9.067079977434103739e+02 -1.412626591818925817e+03 -1.057438814360160222e+03 7.069385533636790342e+01 -1.164492521309544600e+03 -2.587294416918650768e+02 -1.220527328913947485e+03 -2.544282288777629475e+01 5.451668029656226508e+02 -4.810921860792636835e+02 -2.395152084046375478e+02 -9.570289251079680071e+02 -3.601042842395986554e+02 -9.469019946998643036e+02 -9.483203307708633929e+02 -6.016229966318992410e+02 -9.412387205163856834e+02 1.800384603940280499e+02 1.551902682830984759e+01 -8.599386092138836375e+02 2.719866409589964178e+02 2.685037427155443197e+02 4.734853332445866840e+02 4.970449622519158765e+02 3.349499952796051048e+02 1.190078050062076727e+03 8.477588502029389019e+02 1.178034332675306359e+03 1.094969769861393161e+03 1.653896277681100855e+03 8.874334046099874058e+02 1.016201262524085678e+03 6.507865187776632183e+02 8.071860051664436924e+02 1.604579691488285789e+03 1.761379650087443451e+03 2.444102536022843140e+02 5.662302190758239249e+02 2.586650846710430187e+02 7.841481287961368025e+02 -2.404822829954954614e+03 -2.661821147696165553e+03 -1.940339736066970090e+03 -2.595164902145347241e+03 -2.175417122459890379e+03 -1.902521000522786153e+03 -2.848172453001087433e+03 -1.869489152554906696e+03 -2.269359629638324350e+03 -3.315648325578229105e+02 -7.835991530743795010e+02 -2.502230856959758398e+02 -3.928479881137792518e+02 6.109502872723497831e+02 -1.150073160481562809e+03 -1.387497669129627184e+03 -9.260066025587640297e+02 -3.628804581553666253e+02 -1.951515439192168515e+03 -1.617494305454587447e+03 -7.280023259583326762e+02 -5.617402001511406979e+02 -1.605295445034409113e+03 -1.911097434636244543e+02 1.173764151906451048e+02 -1.226884738987975652e+03 -1.981745416507295431e+03 -1.804919543836966113e+03 -2.331385567531998277e+03 -1.991745195772218722e+03 -1.120109861790963805e+03 -9.006070907398662939e+02 -2.376554579260870014e+03 -1.409195753222635403e+03 -7.141072875735344496e+02 -1.579433152059094482e+03 -4.905260372430821008e+02 -7.793255522273836959e+02 -1.000669379779958717e+03 -1.384062150811351557e+03 -7.005910393393247659e+02 1.719377250905272376e+02 -7.365084638389321299e+02 -9.014303529159082018e+02 -1.070198287183198772e+03 -3.345678396716061798e+02 -3.643727422948887806e+02 -8.266073371254051949e+01 2.605748232839677314e+01 8.733346180269272452e+01 5.764103266304134650e+02 1.073276470896015837e+02 2.437975919430699179e+01 4.262511984362865860e+02 -1.406964969698014656e+01 1.252292532414158046e+02 1.444815806818913302e+02 -3.580582540878452278e+02 -2.201238719172423828e+02 -6.636074810754641931e+02 -1.132889876350845043e+03 -1.357294273176312345e+03 -1.307832441644363598e+03 6.519506060241060368e+02 -7.844038167964714603e+01 4.550369857643426599e+02 4.954564930622275369e+02 -2.780980711598793391e+02 5.229249618340530787e+02 -4.958529269428779003e+02 5.200437438882391916e+02 -1.299214974377769636e+02 1.039422673435311935e+03 6.763023276488571582e+02 4.661808766893333882e+02 1.530248766416119679e+03 1.582050390844788353e+03 1.536264702271918168e+03 9.751502746116904063e+02 -1.781479743407159901e+02 5.941057251008571711e+02 9.926778756354468669e+02 1.214478546645513006e+03 -6.873303143005981610e+02 -7.564393941156370147e+02 1.176428993722663108e+03 7.176894102578497723e+02 1.241920427230450741e+03 9.355620728876579051e+02 1.022520662271968376e+03 1.330828105283031618e+03 1.145690653536991704e+03 -2.850827184310300595e+02 1.080309090040171441e+03 4.282019029153073575e+02 4.327548622409658208e+00 5.755820013723021020e+02 -9.616228013317530099e+01 6.601198070455549214e+02 -1.773247177469169742e+02 -3.212712412976681264e+01 3.571131722496270982e+02 4.430303753841508296e+01 -3.400059121408443730e+01 -2.449729486342482687e+02 -4.930197477885182025e+02 4.091213538940114347e+01 -5.477591388350296029e+02 3.313033972054417404e+02 3.778337214092534282e+02 1.273729678483188792e+02 5.267421299059494686e+02 1.057594734856752666e+03 7.233912282470712398e+02 8.257031958213448206e+02 8.392726000302471903e+02 1.044637498067468186e+03 5.434620442295613429e+02 -6.853945101014417673e+01 6.796480062102119746e+01 6.744963668086245434e+02 7.822195089050076149e+02 1.052942858400226896e+03 4.711581136788091158e+02 7.718414710653001976e+02 8.853234840357087023e+02 -1.504304130921275657e+02 -1.177428240459847757e+02 -1.560089281148824796e+02 5.978925003028599150e+01 1.862233338492007988e+02 -3.747902258654489174e+02 -5.931329265668257023e+01 -2.218010037336519531e+02 -1.733704159278634052e+02 -1.014847999958646369e+03 6.423194974901593923e+02 4.828088616125599515e+02 -3.514013816235727177e+02 6.535738842432921274e+02 -4.295699125073593905e+02 -1.660966262167800096e+02 8.309119058868527645e+02 -1.154321451361690379e+03 8.226080650485034766e+02 1.086346643089960253e+03 1.817532161171981670e+03 2.238065414090960530e+03 -2.524896304243035559e+02 1.040059686217535045e+03 1.044507490927421941e+03 8.781525812555273660e+02 2.267137101850695672e+03 -6.535729693202725912e+02 -2.710257631592568259e+02 -4.425271857021340338e+02 -9.873372545546748142e+02 -8.713966174496653139e+02 -7.351517059666366549e+02 -7.896961678661851920e+02 -8.190910412389731619e+02 -9.577266526933493651e+02 -8.348680457548115328e+02 -1.055737691012331652e+03 -7.677348548919808309e+02 1.676743371912731959e+02 4.140259325320648713e+02 -4.337726459958093415e+02 -7.344760794803856925e+02 5.821361061085062829e+02 -2.636941936364294179e+02 -8.395516406052209959e+02 -8.695286598949712698e+01 -3.509742266935694488e+02 -5.888230514071965445e+02 -7.146905002539280076e+02 -1.493459356634853748e+03 -2.024454489935023503e+03 -1.728517941743556094e+03 -1.486409826569993811e+03 -4.053206361626675402e+02 1.941895743405840733e+02 -8.078920549495595651e+02 -1.821799886232988683e+02 8.616005501711924808e+01 -4.847725873307811071e+02 -4.604985145756860732e+01 8.365380208549728422e+02 3.177415105843690526e+02 1.001408151940623696e+02 3.618659451181709414e+02 4.671701398467975963e+01 5.630874215923021211e+02 4.736393634830052690e+01 -2.703412916556309398e+01 2.171725448195247736e+02 -2.189924807861945339e+02 -1.097792724654282779e+02 -2.071764306289749413e+02 -2.369977320712982873e+02 -3.980277198822706737e+02 -3.056039021613897830e+02 -4.366737264681665351e+02 -1.031157101880735638e+02 1.248683603841150216e+02 1.599267836391229736e+01 4.641014804889946390e+02 2.128055930811234475e+01 7.555913102119237692e+02 1.212811313532129589e+03 1.249652591888545658e+03 1.382595422277871876e+03 -3.246487798558906235e+01 1.120124449891045657e+02 -4.628721590581129419e+00 -3.533035139367763122e+01 4.226262735873036149e+02 7.705708054058808898e+01 -3.312012999276699077e+01 3.348895208107439316e+02 4.583506077749566288e+01 -3.426599221465535834e+02 6.447063428805348622e+02 -1.914637426927330637e+02 -2.171047238052916128e+01 1.131755740442879869e+03 5.132539930918397886e+02 8.984002446265178605e+02 4.330688778079637018e+02 1.688541943800667923e+03 1.526757172734593951e+03 1.391668450826307662e+03 6.265838328202366938e+02 1.593429893703424568e+03 1.360269714106885885e+03 1.370452583597283592e+03 1.395629917093451240e+03 1.623026754129961773e+03 1.858592140583574746e+03 1.101142958000691351e+03 1.798437035965661607e+03 8.001286537277851494e+02 7.690449152024965542e+02 6.104298366945958776e+01 -3.315948171874285322e+02 3.779989748881982905e+02 -5.821825584892245615e+02 8.571006514265293390e+02 -2.802053336732080879e+02 -7.240551730843046130e+01 -3.114029910205746319e+02 1.209402822375079722e+03 1.503608867739287689e+03 2.173066942068939511e+02 1.094662246873485401e+03 1.687891417152860868e+03 1.079885175460414303e+03 6.603307265170498113e+02 5.288307759161838248e+02 8.204810518251271105e+02 3.566024227591653357e+02 2.664499290327222525e+02 7.147989202053263114e+01 3.084188720330191700e+02 4.826045745344604398e+01 -1.078752025034195157e+02 3.130599112994998450e+02 5.329358109674716388e+02 -1.423128486468180540e+02 9.519471466031413343e+01 -1.611436726940376502e+03 -1.137096487069950172e+03 -1.881353512951549192e+03 -8.475828882160070634e+02 -1.291742586964521479e+03 -1.450733650719839716e+03 -1.216618660740414953e+03 -6.522557816859842887e+02 -1.786211126798452142e+03 -8.966421804531512407e+01 2.939535583961708767e+02 -2.450390387190778085e+02 -3.532658620427264395e+02 -4.815105321611156910e+02 1.095913051496645494e+02 7.664581976898833915e+00 3.312629493694147413e+02 -3.348563425153150774e+02 4.927749296816983815e+02 6.899344078295766849e+02 1.163546681878366144e+03 -1.322722767891022841e+03 -4.235139384516436962e+02 -3.895862457045857923e+02 -6.246888518839994049e+02 -1.025227119449356650e+02 7.492422091482106339e+01
6.085706464986699302e+02 2.602001900851741993e+03 9.368666590205643843e+02 2.114272683613172035e+02 3.843694252632238317e+02 1.769588265063081508e+03 1.114596441180764259e+03 -1.120982217755772808e+03 -5.296332108484349419e+02 9.645053786362196035e+01 5.016350557670287458e+02 1.240447177305030664e+02 4.633776209830705852e+02 7.192185357132134413e+02 9.053072798553116627e+02 1.215596012769458412e+02 1.766822577890699222e+02 8.304590687639769158e+02 -1.139392993373580339e+03 -1.292477644763539956e+03 -1.543079346313640599e+03 -3.277739815119101650e+02 1.326147993345359453e+02 -5.820318000598281287e+02 -5.769870308566640915e+02 -8.520175004183005285e+02 -1.616354729099381075e+03 -1.854434877117176939e+02 -7.914919425529278669e+02 -7.306077224753843780e+01 -9.867611964453205928e+02 -9.482836858304646057e+02 1.586841486559559087e+02 -9.260001043580541591e+02 -1.550638547804127541e+02 -7.345700136656514587e+02 1.366626818151206862e+03 9.004062871892061821e+02 7.998455605271381046e+02 1.295937475730840106e+03 9.311963765933652439e+02 8.693113365118338152e+02 1.193266383465201670e+03 6.399794784157463710e+02 4.599697737683670766e+02 1.774313192427884815e+03 1.969391243599821337e+03 1.645850010148262072e+03 2.304375742930527394e+03 1.787882602893921103e+03 1.634644806331135442e+03 1.891292587018051563e+03 1.614279082691663007e+03 2.614740086498363780e+03 -9.102964026146673859e+02 -9.626382075177541537e+02 -4.792591107425780592e+02 -1.017305537754385341e+03 -1.220171457758605584e+03 -6.427831635061925226e+02 -5.106280753607517795e+02 -5.186512013476593665e+02 -1.010923091941641246e+03 1.042966503803698288e+03 9.004140886843670160e+02 4.178458032639060775e+02 8.628779139511137828e+02 1.192075627082151868e+03 1.313928201668151416e+02 8.308850885213978472e+02 1.115066104549329339e+03 6.096784481549852899e+02 -4.906887733298060539e+02 -6.099648703649232857e+02 -6.100245736322092398e+02 -7.563016282061845459e+02 -1.070306722569722979e+03 2.509684112965505278e+02 2.925144487490981078e+02 -3.673417652468050392e+02 -4.797568205317044203e+02 1.098026157604099495e+02 -5.504146134455813808e+02 -6.078701295190580822e+02 -3.834772519254580629e+02 -3.896035065005278142e+01 -2.603693765732238603e+02 -7.483810147550664169e+02 -3.113319339320996733e+02 6.849407013876548262e+02 -5.516872123521050071e+02 6.185176414840827874e+02 -2.039710161788632661e+02 -3.005737076272745298e+02 -4.108754716288603390e+02 -1.497813461250551086e+02 -1.007711152400710262e+03 -9.996412518592273955e+02 -6.780561728080128887e+02 -4.579976093433142523e+02 -9.146011793817513080e+02 -5.349243177532807749e+02 -7.944704240040606464e+02 -8.285168224452048662e+02 -1.135420719596966137e+03 -1.375530931351431946e+03 -7.317286807826279471e+01 -6.978518337186765166e+02 -5.617515254982237138e-01 7.263819307765557198e+01 6.608482055301027458e+02 3.171500787579500411e+02 -3.666219541747015569e+02 -4.433199954461422863e+02 6.023599749195768993e+01 -4.186908491265656806e+01 -7.307556669878123330e+02 -9.263082348357334013e+02 -1.008028628290444885e+03 -9.318113893728069570e+02 -7.259376088274751737e+02 -6.536651156648051710e+02 -1.404813736442241861e+03 -1.101071970707268747e+03 -6.946549541398170504e+02 -1.898482681329594470e+03 6.082034811602367199e+02 6.284043122131741939e+02 5.343722709157297004e+02 6.165354735434096938e+02 7.334060826668926438e+02 7.193793371331681783e+02 6.262451474635108752e+02 5.865517402879683004e+02 3.772885176461870742e+02 -5.174113439523462148e+02 -1.100972141132201898e+02 1.672447358154390145e+02 -7.891934549310997227e+02 -9.298157255715657357e+02 1.286646387993683334e+02 5.161866796400627209e+02 1.093072772461690420e+03 6.706120891597450964e+02 -1.193149552203105713e+03 -1.151725087937563558e+03 -4.938093097070689623e+02 -3.730286606048686622e+02 -1.401617965010209218e+03 1.404511071203884285e+02 9.018371285651289782e+01 -1.549732726923399184e+02 3.899398094576483231e+02 -4.176155344351009830e+02 -2.267986890957782578e+02 6.668229430897365546e+02 -3.087380144745932284e+02 2.083156450732151086e+02 8.732967117006005253e+01 -3.175581918235583885e+02 6.690233088596402240e+02 -4.921230170624036759e+02 7.463298761073904188e+02 8.899138136102232011e+02 1.154069244589039272e+03 1.323845711797838931e+03 1.139196674429139421e+03 5.899518176541865842e+02 1.315564777950410189e+03 5.801677598758370777e+02 -7.964202098648855781e+02 -1.813656162603094231e+02 -2.554249177986202142e+02 -3.981136663885496887e+02 -6.661169149655742103e+02 -1.618529872122426013e+03 -7.138173657184789818e+02 -1.585559019841625968e+03 -1.343182425394245683e+03 -1.436294441812229024e+03 -4.890545020826498330e+02 -1.138615469401708964e+02 -1.755586582369994062e+02 -8.481529869779956243e+02 -7.895727179311352302e+02 -1.008420186853808218e+03 -3.807172147047506883e+02 -4.737907156360975591e+02 -7.413381245922025755e+02 -2.522311467933470226e+02 -1.659972734433546293e+01 -3.506494311442181697e+02 -2.568483028323978488e+02 -3.849913813593350653e+01 -1.711803625997135896e+02 -5.786737557486865171e+02 -4.702749819921159542e+02 -3.560203746134085350e+02 -1.192132324733394313e+02 -7.961790264784987130e+02 5.223168909650714795e+02 1.095627410072432212e+03 3.854502810150675032e+02 9.346156181177499320e+02 8.420746708189253695e+02 -7.434564386927589794e+02 3.333601180702494275e+02 6.764171368522301009e+02 4.593072160427263952e+02 -3.204133998344684073e+02 -6.351085553113850892e+02 7.787746598682992953e+02 8.546663729809290544e+02 9.251708600416798163e+02 1.217204547584097327e+03 -8.719112537520845763e+02 -1.917209011955020515e+02 4.897803958642223421e+01 -3.017336641858062194e+02 8.885514100724569744e+02 1.071941711481830453e+03 1.588200932177708466e+02 5.196735269663606260e+01 5.906116136830961523e+02 5.074627564867337242e+02 -9.609185201480692058e+02 -1.895644909344345024e+02 -8.623258257971907597e+02 -1.585827858093093710e+03 -1.709799775729713019e+03 -1.257479724564303524e+03 -6.150315287175792491e+02 -1.775358710876166697e+03 -1.541557952410534426e+03 4.346366148500290478e+02 7.157431813210896507e+02 6.064035114474527290e+02 5.776202267322972830e+02 3.461073323718763959e+02 -8.887082806311690319e+02 7.752436342062779318e+01 -4.388898653724297105e+02 -3.997399664389149052e+02 -1.566411542529959434e+03 -5.904854721444728511e+02 -1.499210800284156448e+03 3.443572952137125753e+01 -4.222718645019364772e+02 -1.748352767827628441e+03 -2.992292293978362068e+02 -2.416326458377599465e+03 -7.475297050606162657e+02 9.896081317193110749e+01 -1.357932130267816717e+02 2.160217524656724493e+02 -4.667448072792566336e+02 -3.762118456252343890e+02 -4.262283661866387092e+02 -3.756871617900644083e+02 1.460000749898909191e+02 5.922267446823238970e+02 3.012447136919006425e+02 8.059350584062317466e+02 6.177112337518613003e+02 1.289905559245753011e+03 1.398101608189367198e+03 2.074823313999305867e+02 1.228837116054421131e+03 9.568209612793903034e+02 7.071698063656423017e+01 -5.824911665855756837e+02 1.748587890239193484e+03 1.885492222923380041e+03 1.925580726575399922e+03 1.907601372365072621e+03 -3.999941539482740609e+02 -2.452873087150943547e+02 -6.674562818851752581e+02 -4.851823257144726540e+02 1.354215197026014721e+03 1.902963795466621377e+03 1.824876838933301769e+03 2.320459023809378778e+03 1.524260099231299137e+03 7.338878380570231457e+02 1.280881123292668633e+02 1.203549570772143852e+03 7.027686890546611949e+02 4.068127468968114613e+02 1.026140451559173243e+03 7.952389389041893537e+02 1.114756334708074291e+03 -4.079177722916993787e+01 2.064362923696981227e+02 3.553040381065019346e+02 1.115350452029244934e+03 -1.084372617191575614e+02 1.295310611867537091e+03 1.350416848438416309e+03 1.300416069495725424e+03 7.738607269798660582e+02 7.408823629026298931e+02 1.107624572245206309e+03 6.206641485664830498e+02 1.041242889573516550e+03 9.010095928537739383e+02 8.872145392935933614e+02 4.792199031447416360e+02 4.127302652358692399e+02 4.907848017793090776e+02 1.914051682308384272e+01 1.256418913201548833e+02 3.573149417236555792e+02 1.041908020535966557e+02 1.886025500142513920e+02 -5.421725265905367905e+02 5.909632074256421674e+02 -9.664726343158397412e+02 -1.373727642536547592e+03 -5.336789448851426414e+02 9.527127266077270917e+01 5.147246091360511855e+02 -1.290129567473316683e+03 -9.313476461777402164e+02 -2.211431111828600024e+03 -5.155885696516478447e+02 -2.022075555088794772e+03 5.627591913693290593e+01 -8.176878162052736343e+02 -7.339868925278170764e+02 -2.221721333142761068e+03 -8.022556988447324784e+02 -2.060766972848667137e+03 2.403261343427463430e+02 -1.374778756571132874e+02 6.302521764161038220e+01 -1.021457715245900999e+03 -1.496844184146797261e+02 6.591899771312124585e+02 -5.375476384714256710e+02 -3.677630188637720607e+02 4.530641713063286034e+02 -1.370191330441532216e+02 -9.033442359778955506e+02 2.490456559099669676e+02 9.974501485309390603e+01 2.352374618418179466e+02 1.048908887176868802e+03 -4.039305370834142650e+02 -5.842747708683359633e+02 1.335342839894473457e+02 -7.383010552669036315e+02 -1.005573743271576745e+03 -1.101700481156175783e+03 8.460363021965557664e+02 -1.163717082819431141e+02 -5.920992376830220394e+01 3.004650243819540378e+02 -5.764585108499967419e+02 2.850205226671540686e+02
-2.329495108837528505e+01 3.733822532702268404e+02 -1.025322929710099743e+03 -7.358045254072183070e+02 -4.291739592501287461e+02 -3.405803194377555201e+02 -8.088991428299203790e+02 -7.927359722648274101e+02 -1.264404607414482825e+03 -2.607188261127383271e+02 -3.374811971455496860e+02 -4.220282052040170129e+02 -4.014850908522726627e+02 -2.073669568280333806e+02 1.767547621805628637e+02 -2.498992554317009080e+02 -2.788313230857802409e+02 -8.012190471731314290e+01 7.005794033512229362e+02 4.516872020570673385e+02 4.851653091216039115e+02 5.289343128181649263e+02 2.137844248474555968e+02 4.804778619682286944e+02 2.630519456649898871e+02 2.246597924518826517e+02 4.965553295941458600e+02 1.229387836277318684e+03 1.721599728205352221e+03 1.143627617225097310e+03 1.350802923544318219e+03 1.594737374073225737e+03 7.265608213166573250e+02 1.235870248212446086e+03 1.413954115072581317e+03 1.781431264731560077e+03 -3.288451942733799882e+01 3.634877331062527333e+02 2.026755969419978953e+02 -8.764879107233649336e+01 3.385275317426354036e+01 9.711359010396837732e+01 2.261510981685903232e+01 -4.977986161376684038e+01 2.102638399821698556e+01 -3.021441893795791884e+02 -5.908603086985979189e+02 -2.476541866714900095e+02 -8.615571445879993462e+02 -5.003972083726748110e+02 -5.527387407664770080e+02 -8.438720628095247775e+02 -7.020482775255038632e+02 -1.095594456002637799e+03 -1.028934668066064887e+03 -7.105680413564251694e+02 -9.166193302173585380e+02 -4.824066299729636285e+02 -5.491284604888303420e+02 -1.116116189134092338e+03 -1.219909098090118960e+03 -1.470316985052609880e+03 -1.284097594611984505e+03 -1.352656910672671529e+03 -1.549659012432403188e+03 -1.528946007687068800e+02 -6.438531029077497578e+02 6.762921693304554083e+01 -5.306464050345791748e+02 -1.031633391566301270e+03 2.833167441015846748e+02 -1.280949544474208778e+03 7.533772498670590494e+02 1.094774316819712340e+03 1.068260461024043707e+03 9.284414589727055045e+02 1.010948580359790640e+03 4.234817390239005022e+02 4.325819484774941657e+02 7.984083084156551422e+02 6.623041227483075772e+02 -2.030467144031003272e+03 -1.578326753821501143e+03 -1.272986001495737355e+03 -8.794554740688336096e+02 -6.152088523148623835e+02 -1.642082141809060431e+03 -1.929678990855765278e+03 -1.732913004258791716e+03 -1.282123981578183702e+03 1.534031820736807958e+02 -2.091323286632176064e+02 7.411760548038841989e+01 -9.193617376961017271e+02 -1.080966465307633598e+03 1.782808104656379200e+01 5.270384013238680154e+02 6.985366059736184070e+02 3.750350221382881273e+02 3.282446182571608801e+02 2.993053985474886076e+02 -7.767717250165907217e+01 3.189421221171707543e+02 5.002740487518028800e+01 1.098267398381932907e+02 2.932637366136885930e+02 8.667414133614432785e+02 -1.410083042682400745e+01 -1.750104488039133912e+02 -1.232586089189912713e+02 -1.108915378829471592e+03 -9.279377256326669112e+02 -4.471080402619420511e+02 -1.496183864284611218e+02 -3.984164422749957453e+02 -3.765629110994372581e+02 -4.346352438653223516e+01 -1.294737619834330417e+03 -1.017751333153131554e+03 -9.265955328663250157e+02 -1.248089350954239080e+03 -1.004141216204102648e+03 -9.509340861670605705e+01 -8.839614432753613755e+02 -6.845051415232377394e+02 -2.851860069688572707e+01 3.692967961441758007e+01 -2.875321103286902371e+02 1.778341727715601905e+01 2.984396344039396354e+02 -4.522654929181214811e+01 -1.601375150534965428e+02 -6.848258568970658189e+01 4.414294513289249835e+02 -1.694622937777406833e+02 -1.929459991204139442e+02 2.093684749635766593e+02 2.948400645947928069e+02 -4.715797826510814730e+02 -5.244273762070196199e+02 2.152049226588632393e+02 5.595454463185492386e+02 1.585688977882985000e+02 -6.640410342265909094e+02 1.332839852258629890e+03 1.429412558409782832e+03 9.503307670349762475e+02 7.611421792133460258e+02 1.319361049391939105e+03 -2.944139087533004044e+02 2.795572685529236310e+02 1.724402143808572703e+02 4.662059108477272957e+02 2.352986972333666813e+02 4.094594643178618298e+02 1.802883211540675461e+02 4.652778251345368972e+02 3.653405249298575086e+02 -4.091250332957744007e+01 -1.113330506388620620e+02 3.401450651463285908e+02 1.328628194389246460e+02 7.312761896796672545e+02 6.332361800102837606e+02 2.783028551709242038e+02 -3.076899940763029804e+02 -5.444533556439400854e+02 -2.000564317718888674e+02 -7.629249093947900064e+02 -1.319454645387098026e+03 -4.213766252482248547e+02 3.661859415000197941e+02 1.783489454063557673e+02 3.623614297254945313e+02 -4.641965321617086602e+02 1.181669479843749286e+03 -5.800470145485646754e+02 7.288126754456274057e+02 5.865625304435268390e+02 8.832665106435645157e+02 3.098927205824511475e+02 -1.185962738685826139e+02 -3.565291645697029139e+02 3.861615724011316502e+02 9.066603887982392962e+01 4.959974917361029156e+02 -1.607612814129673495e+02 -1.995585484234355533e+02 1.310569660261757861e+02 7.652435456527749125e+01 -8.663387608836549703e+01 4.154855120515695717e+02 -5.614563078856386937e+02 -2.690414356213891551e+02 -3.850185255579683599e+02 1.448412227271258530e+02 9.819825154600479777e+00 -3.888384257439726639e+02 -3.703154947629895446e+02 4.885848040351845611e+01 -7.663369658490745451e+02 -6.354056841701166150e+02 -8.088718534693070978e+02 -5.371009332003442296e+02 -1.664996444060013800e+02 -3.088184614993127752e+02 -5.314277176635833939e+02 -7.773831500309424314e+01 -1.032918802099926694e+02 -3.309344927336495061e+02 -3.994900325866998401e+02 -5.296575108717646572e+02 3.713442697948703852e+01 -3.624465052752191241e+02 2.276007385304172317e+02 1.478048095061765821e+02 1.393679749174757262e+03 1.326933095034003372e+03 1.452287440913186401e+03 5.309157898802448017e+02 4.144122212502530260e+02 1.460078306728649068e+03 1.509717161986569181e+03 2.248024609097846565e+02 1.394977410104226010e+03 3.578641554210812501e+02 3.743694990529934330e+02 3.896981193526091261e+02 5.352091833759303654e+02 7.216130455803180439e+02 3.325379227109074805e+02 -4.793803914881360129e+02 3.907515212134774174e+02 2.180583113012322940e+02 7.143929683890605702e+02 5.407314989524012390e+02 5.774551404457748731e+02 8.428276190859226062e+02 1.015823906190828893e+03 1.013112093561062693e+03 1.558976602049012627e+03 1.241479628008903092e+03 9.770521298335792153e+02 -1.336976058741428687e+03 -2.956723119059522986e+01 -1.084983644092927307e+03 -4.883264187057158097e+02 -3.003401703714492896e+02 -1.111275626801984799e+03 -1.944672657749893290e+02 -6.813281186824233373e+02 6.588265135631024805e+02 -8.106934617510166845e+02 -8.134850261557148769e+02 -7.562235098362302779e+02 -8.139759789319092533e+02 -1.050363755983446254e+03 -9.405281898345624541e+02 -8.605218310551950935e+02 -1.090164777623528380e+03 -8.664520071587188568e+02 1.150563464379864399e+03 1.084460411104118521e+03 6.419647610146475927e+02 7.929925831244885330e+02 5.535417867171003081e+02 8.553101948975432833e+02 4.780434381504940689e+02 1.187618477108675279e+03 4.627395243924115107e+02 1.098727007089195240e+03 1.827227494232211029e+03 1.128547392710059057e+03 1.203182325604014068e+03 7.755602588565553788e+02 1.627394625231087957e+03 8.529299432024313319e+02 1.479352788217983516e+03 1.145350030529316655e+03 6.460720456291608116e+01 -1.397133497659410182e+02 2.080580239521722490e+02 -4.527932259156619921e+01 5.201763819342696706e+02 -7.276868099541502488e+01 -1.558816579437929306e+02 -2.726576337900337421e+02 -3.559351170556212196e+00 -2.298854801447106411e+02 -2.892615416139751119e+02 -2.869549162664755499e+02 -4.421672334491679521e+02 -1.332306991491264370e+01 -1.015285763843966294e+02 -2.348863937304861906e+02 -2.643303363685950558e+02 -6.402981241967958681e+01 5.971622646350413106e+02 5.101456366853749955e+02 4.077678822654784199e+02 8.355859405539031286e+02 7.338285037968295228e+02 8.008182794278841357e+02 7.134475896971579232e+02 9.659876783259487638e+02 1.107977420038847640e+03 8.628489204158391601e+00 1.479118640943209584e+03 -1.346537496654642609e+02 1.384806751908206024e+03 -8.821943938606392521e+02 1.262014190726467632e+03 1.114979700212924854e+03 1.177983157823053716e+03 -1.353823162406113170e+03 3.299859669894606782e+02 -3.402431571669376353e+02 9.822328723262488381e+01 3.268228894959814568e+01 -1.089385403788323181e+01 3.957479513353015363e+02 3.604181419545171252e+02 9.207428421969898125e+01 6.290858423805847224e+02 -1.050861877744619505e+03 -5.307279704613617923e+02 -1.366258956399030239e+03 -6.086264584566283702e+02 -4.898076674346920640e+02 -6.817663949215981347e+02 -6.067968167858089146e+02 -3.483332528113718354e+02 -1.185552284026832922e+03 -3.890064496166560275e+02 -4.092573776513665962e+01 2.495522083165413108e+02 4.046621352811479255e+02 -1.013191511101052242e+02 -7.254156097672149599e+02 2.115425940614141780e+02 -3.039805567265054975e+01 6.977672980270966718e+01 -6.040869635674780511e+02 -5.531510172574738817e+02 -9.562576959177370099e+02 -9.502217767835767290e+02 -3.892165252543873777e+01 -4.338754242367973575e+02 1.138637588554342273e+01 -1.568280869590605420e+01 -4.654327118308983700e+02 -2.590556278455313759e+02 -1.306900705677642520e+02 1.377638255679810086e+01 -6.998244588803061106e+02 -3.045785247949443146e+02 -5.319824259020655290e+02 -4.669962201813569322e+02 -2.454180979234517110e+02 -8.112377845440400961e+02
-5.467451971037738758e+02 -6.508718413829737983e+02 -1.396214130877555704e+02 -1.274452901324848142e+01 -2.150045898783197913e+02 -2.244444437697605110e+02 -6.173734208762701883e+02 -5.501416789850828764e+02 -3.997021210624167793e+02 9.549172184444363438e+02 5.603361096994224226e+02 8.068543296897237269e+02 5.883760595301225749e+02 7.598402104366543881e+02 3.915456819488436508e+02 8.758311692743466210e+02 7.918947522547672406e+02 2.694422905876225514e+02 2.791127621227147415e-01 -1.538836839085717543e+02 -1.577732728260764361e+02 -2.007244139132698990e+01 -3.692597230233836854e+02 2.042001188032365917e+02 -7.674280239219370969e-01 -4.277173511193350919e+01 -4.519086746823091403e+02 -3.722407679635750242e+02 -8.895326940624075860e+02 -4.143728127129360246e+02 -9.366366531499062376e+02 -7.294159659596291476e+02 -4.328289961512242598e+02 -9.723393879292945030e+02 -5.050002268901944262e+02 -5.517514960008250000e+02 6.122109759140405458e+02 4.547949308832495490e+02 5.494966836037937128e+02 5.186562593527806939e+02 4.556087771377187892e+02 5.713088396031557750e+02 3.680698056278481545e+02 7.798346292936632835e+02 6.749624338329748525e+02 -6.166888089650371967e+02 -6.436393947381413909e+02 -5.839517956876954941e+02 -6.130279501511727176e+02 -5.301995275117378696e+02 -5.946095789278393795e+02 -6.506106128157057356e+02 -5.106744570849370461e+02 -8.192863848685943822e+02 6.278774628127507640e+02 3.920800975588339838e+02 4.420427680748422858e+02 1.034537549922145445e+03 8.736767500340864672e+02 1.072175288827505710e+02 3.795160724242169863e+02 3.396620435730662280e+02 3.029931272576749848e+02 -6.019319126679016563e+02 -6.060951777110672083e+02 -9.156020718258513398e+02 -8.344446744158990441e+02 -1.183498093692685188e+03 -1.263187631837379740e+03 -5.733636490935998609e+02 -9.740843809764603520e+02 -1.071516901905621808e+03 5.618388058285381703e+02 2.710353274379640425e+02 5.988819928147593146e+02 2.309354648794832769e+02 3.446449361529993212e+02 5.126154450674728196e+02 2.942014217854651292e+02 9.770022934881336596e+01 4.848134233114873268e+02 6.607470428078111127e+02 9.170952245908030136e+02 8.038810121290655388e+02 6.241172274160558118e+02 1.063403917999201667e+03 9.664694066219583419e+02 4.369289814960662852e+02 8.015586648346347829e+02 4.134273536981098687e+02 -7.545431383203545010e+02 9.427897050152840563e+01 -7.102071231166196412e+02 -8.864675703239028053e+02 -7.247319503532297631e+02 -3.789497478326030091e+02 -1.035320637971854467e+03 -7.565495058060869269e+02 -1.215326056903365043e+03 6.576613433870385279e+02 1.725551809608124813e+03 1.484488774287868409e+03 1.068210664451168213e+03 1.970732574527177803e+03 6.291554041175205612e+02 1.305819703903695199e+03 7.565763228694328291e+02 9.056323727980912963e+02 -1.308409585270835009e+02 -9.700695222812061047e+01 -5.668554217142319658e+02 -3.712221929104854894e+02 -5.813215485697529630e+02 -5.820622483123681832e+02 -2.896245339381860049e+02 -2.732294852511678300e+02 -3.802609863727204811e+02 1.187594842960049419e+02 2.669221664988136808e+02 3.873739137002357893e+02 4.043057284174793153e+02 2.093191567548977048e+02 -7.368864339866965452e+01 -1.585222085883225702e+02 3.434646611909376190e+01 -3.220714153940876940e+02 2.699118209342165073e+02 -3.063845416016819740e+02 2.116478422732279228e+02 1.523003268198993396e+02 -2.538033235117201230e+02 2.646401732784991054e+02 -6.743346015977001571e+02 -9.375242494160052331e+01 -7.485708495432728569e+02 -7.269699767434742625e+02 -1.198675466037284878e+03 -8.968258081580191856e+02 -1.116236262210210953e+03 -1.165978681009498814e+03 -3.170870786109709343e+02 -1.000622338588879302e+03 -1.109159847702986326e+03 -1.388708789979719313e+03 1.986836295524851153e+02 5.963894408905130149e+02 1.006307685112970034e+03 1.090465007927960187e+03 2.383916610911013265e+02 9.107098716249440713e+02 8.651303068601687301e+02 1.162203319991906710e+03 1.228927510959860228e+03 -7.952431845008526352e+02 -5.780729466085681452e+02 -3.941965839070966808e+02 -7.023734203619342225e+02 -2.640825179534645031e+02 -6.753300122209335541e+02 -1.286544437804757763e+03 -3.383610833142197976e+02 -6.835467081118426904e+02 3.936068420101055949e+02 2.985759898493585069e+02 3.723363755083721003e+02 2.790137941874834837e+02 2.298021454578560281e+02 4.607462323933429360e+01 -3.493640193335847499e+01 7.897174533030158727e+01 -3.885523857961110821e+02 -9.741419299739121698e+02 -1.006166790772523655e+03 -1.122833625282804405e+03 -1.124505832208715901e+03 -1.487935111526102446e+03 -1.165766490305848265e+03 -1.317688722025771312e+03 -6.745986893492930676e+02 -9.110229254754945032e+02 8.003508119281191284e+02 7.133016489152512349e+02 6.037750771413554958e+02 1.824948007553647926e+02 3.107025617801791100e+02 4.926719800798061755e+01 6.739890040004922867e+02 1.295175215378199027e+02 -1.048805802758309653e+02 5.140572020623382343e+01 5.379669599375627342e+01 -5.489380312922437000e+00 2.236449332322846715e+02 -1.604436167687649473e+01 3.560872180932961442e+02 -9.788833314983898504e+01 -2.477897247786550281e+02 -6.898057440854730160e+00 3.099682425251317568e+02 3.835921210600335485e+02 4.425368214283846555e+02 4.383677187920907841e+02 3.219981455566532418e+02 4.328259719154479512e+02 7.970399564840089397e+02 5.264157593710687024e+02 4.028153251641920178e+02 -1.455785515976037061e+02 -2.163029120621848165e+02 -1.101308595153983561e+02 -3.745632822896569110e+02 -5.829303624692739731e+02 -3.237872472733875497e+02 -3.282478623160992584e+02 7.275430782102503713e+01 -2.692165658020725871e+01 -3.656310002738658227e+02 -7.488984286956397227e+02 -2.908811559421100696e+02 -3.962565013403958574e+02 1.469242691932005869e+02 -4.436593043899759436e+02 -3.551044991956832746e+02 -1.075847489166010433e+02 -3.116099054354217515e+02 7.905218353460692242e+02 1.156519379178515010e+03 6.052604565563528922e+02 6.309222307170891781e+02 3.154103840751516827e+02 6.224590894820845506e+02 -1.132268867405938124e+02 5.769796101012105964e+02 7.143854406252579565e+02 -2.652840272729370099e+02 -2.529740130664501123e+02 -1.672500864593710332e+02 -1.207149074319887347e+02 -1.500221920622254856e+02 1.799551649874963744e+00 2.487271567368182161e+02 -1.419558236473440331e+02 -2.784831449995797925e+02 -7.124718103947485588e+02 5.631481331540561541e+02 -7.592226345194787882e+02 6.142450859508394387e+02 6.859269992267136331e+02 -8.412518526415454971e+02 6.639875510038731363e+02 -2.785246922339150046e+02 6.701118508319011653e+02 1.782663886162281699e+02 1.746116357614043295e+02 -1.023519252098853016e+01 -1.485814309132490791e+02 -5.017394211459621829e+02 -5.606884068363609686e+02 -2.663959132524433926e+02 -1.272906388082843563e+02 1.256433124047805165e+02 -3.305866913405824903e+02 4.832808173678211716e+01 -2.417459694247988864e+02 6.105827785907455336e+02 4.275841663975425604e+02 4.927425004444025802e+01 5.402465683628291799e+02 3.260411553988078026e+02 3.846858965094304494e+02 2.595581617952789770e+02 1.033672395231595374e+03 9.454973985283962747e+02 8.957118244710635508e+02 8.200114235023351057e+02 2.738973538604116129e+02 3.914785212647496451e+02 8.714877647942063277e+01 4.777293509197189678e+02 6.039486267227749750e+02 7.102159520124980645e+02 6.366869366493796178e+02 8.685170230120721726e+02 7.706356581986141236e+02 7.167344665374118904e+02 6.263227382016344791e+02 8.613441816553611261e+02 9.888326641874186862e+02 -7.466160355506760880e+02 -6.596278232419646201e+02 -8.437422130683806927e+02 -6.720847403671928078e+02 -7.598464238916579916e+02 -2.986113053398661350e+02 -7.522780664184706438e+02 -3.904242877054437031e+02 -7.085985934691292414e+02 -2.525071445785899016e+01 1.334195680108760200e+02 1.063537950911071022e+02 -1.196840673722989123e+02 -9.180833694735795802e+01 -2.231594755756826203e+02 2.979440072063248124e+00 -1.626605373722123886e+02 -1.877574148642398484e+02 9.866631275157244545e+02 -4.954644952049149254e+01 -6.203843813771762825e+02 -5.215740513340024336e+02 -3.419564686594757177e+02 -7.072668644668467550e+02 -1.079619858354899179e+03 -3.592742652223445248e+02 -4.701792768386891908e+02 7.650686515980447666e+02 7.467451335995345971e+02 1.153095272520016806e+03 1.218591863450399387e+03 5.680827683744736305e+02 1.079056143144369457e+02 5.070702024850190242e+02 7.679457138090297121e+02 7.496336037304716911e+02 -5.512940430292051133e+02 8.978790285569791649e+02 -4.271260296109842898e+02 1.250309119555966163e+03 7.318557205285270584e+02 8.295449316245238833e+02 -6.855036997243425958e+02 7.529660025316321708e+02 -4.272391430885131740e+02 -1.389416887136306968e+02 -1.270385588929147644e+02 -1.248148488521735260e+02 -9.528338447226291237e+02 -2.574940190100351245e+01 -8.384978335129372340e+01 -3.923476458971537113e+02 -5.412076232976997971e+02 -1.542575378911188011e+02 -1.057038611159976881e+03 -9.125469707140567834e+02 7.752283690012504280e+01 -6.257230812698161770e+01 -6.413493386483634140e+02 -1.512957507535120669e+02 -3.114640990203220667e+02 -6.858424644692659058e+02 -5.935292684596903428e+02 4.017659353844625230e+02 -4.903304560555514513e+02 -6.773785448897577055e+01 4.807017457155700413e+02 -4.315283658660251263e+02 7.222268836174981743e+02 -3.010165406756947846e+02 4.400592304166564759e+02 -3.959280277871245346e+01
1.299173426297589344e+02 -1.009801229979399068e+03 -3.371176306256047042e+02 1.322659212964175140e+03 -4.201116151489771369e+02 1.317495677183339467e+03 4.001158593775763279e+02 -6.705081523595225690e+01 -3.996286510620075205e+02 2.606080443306413486e+02 -3.546152794504442909e+02 1.848304751290034176e+01 -4.492915390340129989e+02 2.287955432777792097e+01 -6.373250385040677202e+02 1.579599725707755340e+02 1.256013482102147094e+01 -1.007075602027462537e+03 -4.381542941062602949e+02 -5.090281258370931141e+02 -3.893599671566226448e+02 5.794430345868977383e+02 9.844666007203774143e+02 -3.094657658579716397e+01 5.124937012109987791e+02 7.371196139537448744e+02 -9.935823320910782286e+01 7.476442734831404096e+02 -4.179874068095102757e+02 1.125755678548081278e+03 4.426354560472792343e+01 -4.219674933303489297e+02 1.357014904237531027e+03 2.361849979506961859e+02 9.397533880449578874e+02 -5.093226062613366594e+02 3.091330619543318221e+02 -4.204076880253317086e+02 -6.007108288680943815e+02 2.905883720442546405e+02 5.846843404915408655e+02 5.405967601571218211e+02 3.574342499747546640e+02 -2.660908600473040906e+02 1.209220893178130609e+02 -1.348214833742642213e+03 -1.338136458849153087e+03 -1.072533664916816178e+03 -6.904382025992235867e+02 -1.692167739196523826e+02 -6.706585893808844503e+02 -3.762771767538080212e+02 -8.290767299368342265e+02 -6.439205184021989226e+02 -2.612503064104225246e+02 -5.169306379197519163e+01 -5.527193546430143556e+01 -2.898522729142751331e+01 1.857567388248410793e+02 -4.013373406037808877e+01 -1.726458287413351798e+02 -2.431122618702274849e+02 1.090374119861231748e+02 6.323425328130629168e+02 5.243482212365613577e+02 6.058488859285013177e+02 -5.890742429399274727e+00 6.173179101755633837e+02 5.377395314731946883e+02 -5.389878243206027264e+00 7.704477062979184439e+02 1.041081890854385392e+03 -1.129608877151077195e+03 -9.735769325528888203e+02 -1.060270372123110292e+03 -4.531634764029470830e+01 -5.819052196322119244e+02 6.724796030016749455e+02 7.237157044085978441e+02 4.463049033211606229e+02 -6.608673226639122049e+02 -8.714326988793014834e+02 -9.905550241639919022e+02 -1.034936216193107612e+03 -8.453455557195152323e+02 -4.193690069644464984e+02 -7.886016318788884973e+02 -6.652033448743428607e+02 -9.105629924403964424e+02 -2.867387905346301409e+02 3.220296800044258134e+02 1.559269855082103504e+03 8.289673428965318180e+02 -4.486955876672817567e+02 -7.712513900281528549e+02 9.461505766827258412e+02 -9.556426615496159229e+02 -1.581157235441111879e+03 -6.916299716088358309e+02 5.373565692283069666e+02 3.175806860933825533e+02 9.677759924953356858e+02 -3.137172507738986837e+02 -2.736209110856777897e+02 9.780904209379676786e+02 -9.256306264661337480e+01 -1.588916446292411706e+02 -4.276708537298338086e+01 2.264864369182867776e+01 -3.365985621296223371e+02 1.082851717710284902e+03 1.236547839310710970e+03 1.366710912098338326e+02 -4.975299210507791940e+02 3.188340765988637600e+02 3.812915048279871257e+02 -3.610702002738183864e+02 -8.365472782403483052e+02 -1.183975565331341159e+03 -1.222768279272081827e+03 -6.433652637665582006e+02 -5.189985110247259854e+02 -6.802406996296151647e+02 2.109066619710258976e+02 4.046811272382593074e+02 -2.556813593882857560e+02 -5.725905904883944686e+02 6.268185353753050322e+02 -4.800933098065906961e+02 -5.466314799224586523e+02 6.278939014179304650e+02 -5.379362823145672792e+02 4.408370745020540085e+02 1.738361025552009949e+02 5.250018855257623045e+02 -5.271505870129454934e+02 -3.508625486955264705e+02 -5.159739236731169285e+02 -1.140079873603795249e+03 -1.083903581118948523e+03 -6.272887577905328271e+02 -1.203196088709836658e+03 2.050486163320650803e+02 -7.482907481170724395e+02 1.431439525344579522e+02 3.207385732594322292e+01 -4.664703243080801940e+02 -5.232302796964248728e+02 -1.697629885207568279e+01 8.694260452090140916e+02 1.406115091018175917e+03 4.294661371783301433e+02 8.333931654198252090e+02 -6.322796819816022662e+02 -5.184065019642025618e+02 7.691593037668797024e+02 -3.222455862085535614e+02 1.544352267898154878e+02 7.482981292002415330e+02 -1.358051831618734298e+02 6.248939490428746240e+02 -1.251344188735058793e+02 3.707256082480650434e+02 2.372364498692394932e+02 -1.789299016993873863e+02 -5.011814689874569240e+01 -1.820472461559397743e+02 -2.491462746350839268e+02 4.944555833370549180e+01 -3.970445636202845776e+02 1.247642629175684590e+02 -3.791829009150111460e+02 -3.542966953162758728e+02 -8.001784626230605113e+01 7.036528759877485300e+02 4.683063093971505282e+02 6.428643767005798964e+02 5.939274017712021987e+02 1.700267327525554890e+02 2.073754748624353397e+02 -3.832224289878440118e+02 3.652972932290356312e+02 3.554883713688575853e+01 1.895544646675872116e+02 -1.389720986772299227e+02 1.545618548296457391e+02 6.146638009335093784e+02 6.697957995103049598e+02 1.724017212813713229e+02 3.785524010121756646e+02 5.055064242961888681e+02 3.718786220497987642e+02 -8.567126501996040133e+01 3.540201130266718792e+02 8.852709777276501200e+02 4.122357257476839436e+02 4.074004274644274801e+02 3.222185835669004064e+02 1.108522969841943535e+02 -6.736617812964552741e+02 -1.398696542846189686e+03 -8.221308104171174591e+01 -1.375153353102840811e+03 1.237153988204891988e+02 -1.747077428840316884e+02 -7.610786700678177112e+02 4.099787247849872642e+02 4.268066402302877123e+02 4.739795758557115732e+02 1.657655215385567317e+03 1.022590156602088996e+03 -7.196920121100717438e+01 6.043484654661029936e+02 7.044578955596865626e+02 1.836340750352507030e+02 8.423544351448206271e+02 -4.952050454918040714e+02 -9.392341485366321194e+02 -5.192027692035190967e+02 5.921978021141470663e+02 5.310012393050246828e+02 -6.829017655410558518e+02 -1.875490047321092106e+02 1.004768647724355674e+03 -3.398200337580879022e+02 7.496674471839358489e+01 -6.942801736953234126e+01 -4.353243188267614414e+02 -3.963047044226362345e+02 -4.837636040081005149e+02 -8.987098303943099609e+01 5.499787479981044953e+02 -4.751658273312735332e+02 -3.277600619115173686e+02 -7.238842022662304316e+02 -1.024425148406227208e+03 -8.431848856871098405e+02 -8.467725712307965296e+02 -1.159768560228576007e+03 -6.472098730879031336e+02 -1.669102692560634864e+02 -4.319101014297957022e+02 -4.163123337362277425e+02 2.028721793029287994e+02 -2.749320948820471813e+02 5.608727207811770654e+01 3.939162694523821528e+02 -8.595449939626732316e+01 1.363989809543023455e+02 4.074285451703564149e+02 -3.858739284933948284e+02 7.214227332148584537e+01 -1.497432309737598359e+02 -1.637541339504732605e+02 3.413952493664618260e+01 2.761425901185510270e+02 7.917061941950054234e+02 8.436409723390102045e+02 6.159985951290052526e+02 6.832655898107574330e+02 1.464049717775134951e+01 -3.902886875965264153e+02 -4.497408452489800652e+02 -7.421975433806663887e+02 2.754611544667718022e+02 4.634644680704383859e+02 1.802221774471163371e+02 -1.966998658359084686e+02 1.784660799544521126e+02 4.369355971347034995e+01 4.817492434829424610e+02 7.821602705262595236e+02 6.584848937647600451e+02 7.158767963863683690e+02 5.400717458625098288e+02 8.428741561691959987e+02 -1.285204215208996459e+02 6.834660358942946914e+02 3.525447696259195141e+01 -1.962351032151185848e+02 -2.387437435184888557e+02 -2.343842472244058683e+02 -3.792755024366470593e+02 -5.072281967202841884e+02 -4.581874658808542335e+02 -8.774529149629953508e+02 2.980280203906725944e+01 -2.061444631788126003e+02 3.538548633773532970e+01 -6.906552966870450518e+02 -6.707054908589760771e+02 -7.944878729444893679e+02 -3.011170548348897569e+02 6.279982920938042525e+02 -3.186941648459891212e+02 -4.414853522332656439e+02 1.877234205749278431e+02 -2.269831021232917863e+02 -4.981610749066222184e+02 -5.751627931494341510e+02 2.175635703309687585e+01 -6.769451216768757718e+01 -3.324433532983418331e+02 1.577893281711518227e+02 -1.204764358914164717e+02 -1.737064766201903012e+02 -4.980052520128558626e+02 -1.109883660854777077e+02 1.494303160379622568e+03 3.761742654981392207e+02 1.787760865455401472e+03 -1.036980266614573338e+02 -2.762814594071804777e+02 1.945666105137817112e+02 1.283014867174041228e+03 2.224055868368550364e+02 7.783901407489083795e+02 9.177148648537488498e+02 8.546850367072033805e+02 4.692326503552135932e+02 1.301285198618099002e+03 1.266203322751873657e+03 7.229511142924484375e+02 9.449663313394548823e+02 4.891577893483724893e+02 -2.379582224476142471e+02 6.540414336180964483e+02 -1.371635486028380910e+02 -3.366796476619466603e+02 -5.027584586381933036e+02 -2.422125264085220238e+02 1.253078330748125602e+01 5.209980541311113029e+02 3.526948006037105898e+01 -7.950936544831926085e+02 -4.852687960931501152e+02 -2.228778138143119136e+01 -7.738131631647954691e+02 -3.394958227673748752e+02 -6.161214674612790532e+02 -1.051546785943277882e+03 6.220192908554679434e+02 -3.145711186674868642e+01 -2.140047691770492975e+02 1.786361469104957109e+02 3.312836213046311400e+02 1.761215227667125873e+02 1.805090692964117522e+02 1.813156836916364867e+01 1.010183240438296934e+02 2.681356764804325508e+02 -6.137501823605708751e+02 5.786219115720681430e+02 3.313106632987870057e+02 2.821208407344066131e+02 8.142747146402992939e+02 -8.888588898280329431e+02 9.826626619074397695e+02 -6.547640303078197803e+02 1.701932816959026923e+03
4.145185676698301336e+02 4.723301044101782509e+02 1.175138863855561794e+03 -5.745470279679374244e+02 -5.691078862775947300e+01 -4.509657280162879829e+02 1.935323631182408235e+02 3.620963778332941843e+02 -3.003298793841233874e+02 3.120617659420074688e+02 7.170611389044008774e+02 7.467671932320057522e+02 7.884280930392809523e+02 5.949082770777249607e+02 5.708090446285168582e+02 1.060123757925494374e+03 9.050821965793675190e+02 5.841097576289337212e+02 5.023275017371569220e+02 -3.933230479481662201e+01 2.456528433432630436e+02 1.129603116326570387e+02 6.647515737516204126e+01 -3.513653033394775775e+02 -3.144941600408108684e+02 -3.679675133015541064e+02 -1.358125570987220598e+01 3.053646766498563920e+02 1.398689067826637995e+02 -7.389922605683626955e+01 -2.304259270084036189e+02 -6.341400640384656526e+02 -8.726838421825863179e+02 -1.356440832231768923e+02 -2.906311566970871496e+01 2.229021691563826550e+02 2.741487549632965397e+02 6.509503312782717330e+02 6.450597682739924039e+02 3.671405558626722154e+02 -5.307443685955067849e+02 -4.746312371527483833e+02 4.056659953300932671e+02 -5.531032098757642643e+02 -3.287117136554596186e+02 -3.938991154387736628e+02 -3.026000103099647731e+02 -3.153662525092474311e+02 -1.119906862180692997e+03 -1.119403278723197445e+03 -9.134778533246263805e+02 -1.016726008086907541e+03 -1.047854704062808423e+03 -1.119792726713150614e+03 7.454254920686554442e+01 -4.893814089909221821e+01 1.916063137400983862e+02 2.789168786878289552e+02 4.188577604693038126e+01 9.437972854246285692e+01 1.774380632610200053e+02 1.433386631642556779e+02 -5.434467017559988733e+00 5.389308359768672290e+02 3.603219495743826428e+02 8.475526359079319150e+01 3.510916725828985250e+02 -6.153105108282755964e+01 1.710018440867758613e+02 7.910559666135684438e+02 -7.390757748200607580e+01 7.629074232828445190e+01 -6.092193548214289649e+02 -1.905121517400523032e+02 -6.614317414291174373e+02 -6.239380391481843162e+02 -8.011406696666679181e+02 -1.267480352304799453e+03 -1.139061480034156830e+03 -3.285961780042127884e+02 -7.247590337751923926e+02 3.967730839341395495e+02 6.877845460519868084e+02 4.889566812448429687e+02 3.672044134360842804e+02 9.132385709547460806e+01 9.129216456915949607e+01 8.718651552963117979e+01 7.331539120797731357e+01 -6.537117347418699183e+02 -7.680101236843487413e+02 -4.974962642884482875e+02 -7.172806115353629366e+02 -1.004777464499762800e+03 -1.235158732665893695e+03 -4.642403211830142595e+02 -7.683423972246794165e+02 -8.287459386346957899e+02 -9.272073158730780733e+02 7.528788033157863993e+02 1.254979738204111982e+03 8.076060387091532675e+02 1.283287919832687294e+03 1.011254164475449215e+03 1.754419908010419817e+02 1.466343839178677626e+03 5.710082719151041601e+02 4.549550183164886903e+02 9.459419128793158507e+02 1.113893986087974781e+03 4.846752825441675441e+02 5.738681432588379039e+02 6.873858079869104358e+02 2.926569475167170253e+02 2.827639819849443938e+02 2.800698186028484429e+02 5.065758047446223031e+02 -9.821815671844917688e+02 -1.024340304742691160e+03 -1.011945199978889036e+03 -1.121385595276656431e+03 -1.110199250444186873e+03 -9.336103619529457092e+02 -7.868633057966773094e+02 -9.371873300894309295e+02 -8.187852364838370249e+02 -5.466438599769733173e+02 2.060390332013981833e+02 -4.914755738505029399e+02 -4.931177436943889347e+02 2.402712422605668507e+02 -5.194331203827292711e+02 3.672459937198494231e+02 1.575168414360250608e+02 9.055677084827303247e+01 2.737763879046028848e+01 3.511761577167215478e+02 4.907074843245106877e+02 -9.486136630857480156e+01 -1.905059982746289506e+02 8.246430230698628350e+01 3.998339950598704036e+02 -1.216851688459754257e+02 7.761161121666121687e+01 -2.239088386032736366e+02 -1.828638901339839151e+02 -9.524079711947760529e+01 -1.625605063455589629e+02 -3.369793187943535173e+01 -8.959616706270871873e+02 -1.221725109619834257e+03 -6.324368457520607762e+02 -1.115770559207665883e+03 1.395951192527801652e+02 7.718658246200113808e+02 5.888032187886735755e+02 1.023278374736241972e+03 1.093401642450113286e+03 5.521957673873022259e+02 6.349871648984990316e+02 8.092250191547626628e+02 6.232047483248968547e+02 -5.417959896482984732e+02 -5.731396471796598462e+02 -6.138372704793023331e+02 -8.739982650503800414e+02 -8.082659496730268529e+02 -6.263640370409927982e+02 -6.978886764657337380e+02 -5.762677126702875512e+02 -1.940944073644485570e+02 6.249177524682945659e+02 7.966199833688507397e+02 5.895613233116580432e+02 1.367561916397081632e+02 -3.334190864808780361e+02 2.373534256644004756e+02 -6.846901128335935027e+01 6.093613162150683138e+01 -1.453417032643287712e+02 2.943365543889563014e+02 1.136878254982329679e+02 3.024163029200329902e+02 -7.416701389459953475e+01 -1.006683237866506317e+02 -2.589826644265394293e+02 -4.401928020873069727e+02 -5.408836491717801920e+01 4.406960374131105596e+01 9.332401924753716571e+01 1.476216727236617317e+02 2.105342359037165352e+02 -1.448221416836335891e+02 1.907806095900907621e+02 1.731927609196097819e+02 1.733967291501881789e+02 2.033684945195377054e+02 1.855647492777495700e+02 -4.216690643409161225e+02 -5.600823195215402848e+02 -5.827293059537290674e+02 -9.518880831885901443e+02 -6.912593773344843839e+02 -8.849688727815598668e+02 -6.496867460537993111e+02 -6.558446704917431589e+02 -9.220195576155047092e+02 9.356349301398405487e+02 7.171528047774522747e+02 3.573082517224866024e+02 2.339924129510461910e+02 8.022185436867395083e+02 4.710563645786270968e+02 5.617762653308084282e+02 3.185284424609167218e+02 8.292875743920477589e+02 -2.898612994278942665e+02 -5.237056153011661763e+01 -2.649037148427614738e+02 -1.009643085078038496e+02 -2.438733739158287790e+02 2.893394441379903128e+02 -2.789612708908029504e+02 -7.027167091420541283e+02 1.447153711245331067e+02 6.469873883196062536e+01 -3.163505833724687477e+02 6.598252614698684511e+02 -4.246701854736551809e+02 -4.159041613510545403e+02 -4.099215757435757155e+02 -9.005849359755454770e+02 -8.247329462416246315e+02 -4.351917733536519677e+02 4.936051906750768126e+02 6.713848336328661617e+02 4.097011365647132379e+02 6.156016603221787591e+02 6.409103116160606533e+02 4.424816409866098184e+02 -2.024182431488738132e+02 4.070184900236150725e+02 5.365266932153375592e+02 -4.003745038171394981e+02 -9.455309280974870489e+02 -3.585551033753088177e+02 -1.283271541628760360e+03 -1.075570244908970608e+03 -4.160872593631389691e+02 -7.201918986130293661e+02 -1.933475758886070821e+02 -2.024595223521240257e+02 9.038105231006045415e+02 1.099574556676436259e+03 8.035675657835085985e+02 4.033181306370321408e+02 2.315750740300513044e+01 4.078522468715820537e+01 2.482411726362656452e+02 -8.909181398416060915e+01 4.550606593041561041e+02 1.886061845935453789e+02 5.266496389852192124e+02 7.250236345717549113e+01 -1.546383318939475373e+02 -2.845721031873123934e+02 2.581960069855719553e+02 -3.370400044920631899e+01 2.012195350624032812e+02 4.395756890237763059e+01 -1.033737914624484802e+03 -2.436791150381975228e+02 -3.200250202868120937e+02 -1.770494457002881461e+02 -1.056396326743812324e+02 -8.225298388790491799e+02 -5.853304087803646780e+02 -1.042330472655568201e+03 -7.243499999897248927e+02 1.884256689920304666e+02 1.252771664205624091e+02 3.548586964400064403e+02 -2.908038567761021795e+02 2.656803048477988227e+02 1.228502707530593341e+02 2.415520919954986425e+02 2.853875869507184007e+02 6.592433807398256249e+02 6.730730282887107023e+02 8.033410149669917928e+02 9.667508288652775263e+02 7.271259737961696601e+02 1.558360362203713692e+02 -4.410373877377036820e+02 1.193266508943112427e+02 3.007029177033360270e+02 6.101934230216819799e+01 -2.035336878058245418e+02 -1.136346172620263815e+02 -7.207282069131616709e+01 -1.193662930440274863e+02 -8.033084987113760178e+01 -4.337834364978828603e+02 2.348134686472079125e+01 -4.416925361162589638e+02 -4.812237974680146522e+02 4.636770212835227767e+02 7.139001604295973493e+02 5.477357091169018304e+02 8.691701896454472944e+02 -3.490137335572530333e+02 2.864739084225243460e+02 -5.488050010067616569e+01 1.038722069995191930e+02 -6.965577523285913912e+02 4.934645041191545261e+02 2.806788689864305297e+02 5.267409010180369933e+02 3.236537113259111038e+02 2.535457102030897545e+02 2.478344761132905774e+02 1.697240492420340843e+02 7.542512318736389716e+02 4.770848635628972261e+02 1.226932748525922108e+02 7.546339012610113173e+01 2.078555202821421801e+02 -8.780718021682734786e+01 -1.601282755011531478e+01 -1.017877950988192026e+02 -2.967623159809862159e+02 1.956872410496582120e+02 1.983999424146414867e+02 -5.537058787670572428e+02 3.677067944345456567e+02 1.326799677106204172e+02 2.514456433187333317e+01 1.514594778359971485e+02 -7.698225383126498400e+02 4.687227033935568556e+02 -1.527608923522839461e+02 -7.237238616311129817e+02 -1.747496516439456968e+02 1.858586090107501150e+02 1.899875433977547630e+02 2.111482777319526178e+02 6.061817374971080881e+02 1.713805767358562662e+02 3.248405163325983267e+02 3.135612172602570809e+02 7.193239884514226787e+02 8.254412833196029169e+02 1.580785981886714922e+02 1.077192378699595423e+02 5.801714019389354462e+02 6.824196448035530693e+01 9.269687538507513409e+02 -1.561992014425622131e+02 1.101285786291559589e+03 -4.758317201986754981e+02
1.079821707112649619e+03 -3.824428417433381355e+00 8.752186539166220882e+02 8.871985092385035614e+02 1.628931516572787928e+02 7.114163818989843548e+02 7.707791476936122308e+02 1.185972825748697232e+03 5.712775889610883269e+02 4.392651488471994981e+02 4.362971626401525214e+02 5.421841275369116602e+02 3.201672286057134329e+02 3.276228924283666402e+02 2.981025781845212919e+02 3.985903114615673530e+02 4.705109793282953206e+02 1.656100584876020605e+02 -3.543597724688008839e+02 -3.621614251730148339e+02 -1.693548049684659418e+02 3.521830821331047332e+02 4.275029486174881868e+02 1.062748937103358884e+02 3.305341626262030559e+02 4.138440119413300522e+02 -3.276188741552340389e+01 -9.088380275038963418e+01 -1.344817805562942681e+02 3.373571862438076892e+02 -2.115562928155756879e+02 -5.868811945881606107e+01 8.600608486176199676e+02 -8.077652946332668193e+01 2.696369996823070778e+02 9.394091217235256863e+01 5.726154388920906513e+01 -2.105183341153370691e+02 -2.124580423258840085e+02 -1.394414506560404732e+02 3.831400371862137604e+02 4.975881241462216167e+02 -1.504254088352668717e+01 7.486796666147841961e+02 6.674506434827028443e+02 -4.443998278029556559e+02 -2.874723460345348371e+02 -6.798669710832742794e+02 1.254330513562646843e+02 -1.989945689108533600e+01 -1.866828921332057689e+02 1.711581636093994803e+02 -2.231587658066182485e+02 1.868488626338631775e+01 -1.355309710308178182e+03 -1.380679283380908828e+03 -1.647301694503604040e+03 -9.556760907706028547e+02 -1.141806854053100551e+03 -1.457017078272942172e+03 -1.337527931126259773e+03 -8.368702696760153685e+02 -1.354869813644274700e+03 -6.761398882779832320e+02 -8.493229258229287097e+02 -3.561713844528489403e+02 -6.763256067998433991e+02 -1.600932966620372326e+02 -2.803181694631442156e+02 -7.480610437929825594e+02 -3.065289006517248822e+02 1.754782262469242369e+02 7.817165882080635129e+02 4.136030007948031084e+02 8.017903638443601722e+02 7.406178138025459248e+02 7.003163331369715934e+02 7.779704798875962979e+02 5.622191543850012749e+02 1.952322631684044154e+02 4.934534049509754254e+02 4.591805292441965776e+02 8.608475960597731955e+02 1.095701055457671146e+03 1.101735175704953235e+03 9.786556954422155741e+02 7.063668643435244121e+02 1.046499639188675246e+03 1.021035672812926691e+03 6.775184719064526462e+02 -1.052522356745445222e+03 -3.754854006627156764e+02 -6.186360698074997799e+02 -2.740991398132731547e+02 -2.995251950170340933e+02 -6.461088928874592057e+02 -1.038213227331424378e+03 -1.123916038983231601e+03 -6.514164288522708830e+02 2.403405516315238231e+02 2.644930258208850660e+02 3.008787481600857063e+02 2.700135798603662352e+02 6.129702295982694977e+02 1.710064747437945982e+02 9.998507348787899218e+01 2.098293309286582371e+02 2.527333125608565751e+02 6.821221989819630380e+02 5.619075065004969929e+02 6.232249738702459751e+01 1.820833954931051721e+02 4.475627703097597987e+02 1.451558191530605200e+02 8.521696402882172379e+02 8.460944900746162602e+02 3.198052021599467594e+02 7.136344744025917635e+02 7.562016661078315565e+02 6.670714531185790293e+02 7.374356187853301208e+02 7.770798212274721664e+02 1.275183380721526447e+02 3.284726950395877338e+02 2.805058839071886609e+02 -7.935085630186613059e+00 -5.444080385511530267e+02 -6.262646898877250123e+02 -5.255202831826502461e+02 -4.745410014402046954e+02 -5.135946692507576472e+02 -4.655805395259855572e+02 -6.672668897414957883e+02 -7.728968496129577943e+02 -5.000690201054855493e+02 4.255998629204616464e+02 9.233286908216090296e+02 1.228589738406067454e+03 -1.419495577331861114e+01 1.680390575927784482e+02 -1.558411893175882312e+02 8.226699485061849373e+02 1.410404334877751808e+03 1.033966685977101633e+03 -9.095278294999754820e+00 2.114185505760677017e+02 -1.931630343122045019e+02 -1.783839119424405908e+02 2.285574847988669092e+02 6.888714578284785830e+02 5.914520620398750452e+02 4.731757490068721381e+02 4.672918109448937116e+02 -5.194670354192112427e+02 -7.281245045692891154e+02 -4.684723994848617394e+02 -8.072781422455116171e+02 -7.182442557982529934e+02 -6.037775779722419429e+02 -3.894614484362745657e+02 -7.418616082632476036e+02 -5.671351204058636313e+02 1.792699601466200932e+02 2.387236211995107453e+02 1.735839701826053272e+02 -3.375181135825730507e+02 -3.156072694602759157e+02 7.001990526864766480e+02 2.497894937562318489e+02 2.282642229874305144e+02 -3.890237716662854268e+02 -4.593230784336898296e+02 -5.660946754921319553e+02 -1.541284136920617129e+02 -8.614537438719546572e+02 4.232223316920405978e+02 -7.493672412205746696e+02 2.812794191548182994e+02 3.587231613363558154e+02 4.352688089845970012e+02 -1.475226305327538796e+02 1.401817127677759913e+02 -2.155079761790775095e+01 -4.213552136699441064e+01 8.363776676623602668e+01 2.707516067391811276e+01 5.165322787080663147e+02 3.026496215929892841e+01 -2.716857491746483220e+02 -1.606302788983892640e+02 1.318093548741084078e+02 -6.061941931997238697e+01 1.553038944292906933e+02 1.748636041169508530e+02 -1.234572182544700496e+02 -1.907575417739950296e+02 -1.171436924160269939e+02 -5.657572969654232509e+01 -4.687959499375631935e+02 -2.888635700705813179e+02 -2.882212417555637103e+02 -4.031866749358876234e+01 -1.865867484919944843e+02 -1.573934629321084060e+02 -2.495691320479413662e+02 -2.006439559710481717e+02 -2.321238171188908694e+01 5.976820989551081311e+02 6.259281017267547895e+02 1.422715719530935075e+03 8.158458713406184870e+02 7.475097004112495824e+01 7.440905549303538464e+02 7.702481768354658698e+02 9.545999793529686031e+02 9.242236330329347993e+02 -2.662231410155432059e+02 -1.398216657211289089e+02 1.642887440686136244e+02 2.200718404290170724e+02 4.093311239762376204e+02 -2.692652633436524638e+02 1.092122567802110638e+02 5.580257837535979206e+02 -1.917639989392968687e+02 -1.033466568838354760e+03 -1.992749092999319203e+02 -4.804705562476092950e+02 -5.679012133449145949e+02 -2.729714678645128174e+02 -4.341345860444253049e+02 -5.071105342769207596e+02 -4.247184196896928370e+02 -2.728283887159063852e+02 8.275965169717582057e+02 4.187910984626993809e+02 4.125582455233476367e+02 6.504210537712590394e+02 6.287557971031652642e+02 4.907724966191700560e+02 1.705144961255188321e+02 5.044318986292330464e+02 7.074029393503099072e+02 -2.209545362144342846e+02 -9.553666706377996434e+02 -4.840366247716261228e+01 -3.782802518607790034e+02 -8.932877670878006029e+02 -2.672936854831698952e+02 -9.185632861994105269e+02 5.107493971760347051e+01 -6.337987936095283885e+02 -2.239654900301681266e+02 -1.957976183640711554e+02 6.167047506875251273e+00 -2.435265704847302004e+02 -1.515925297067489907e+02 -2.887774671688729882e+02 -2.881507731903847684e+02 1.794633424087165565e+02 2.406068015867988663e+02 -1.032827907729070205e+02 1.740186966702794180e+01 -9.576806003075834184e+00 5.220733076180388252e+02 4.105760943692648084e+02 9.389818887395711045e+01 4.099832336121135086e+02 2.777638377584211753e+02 2.743756804342246483e+02 1.976625201472741651e+02 -6.139280565092888082e+02 -5.956756472445217696e+02 -5.779549590056925581e+02 -6.438192840580126131e+02 1.860781224219118144e+02 -6.855164059631486850e+01 3.090280066616675185e+02 3.020023535272587196e+02 -1.243731989009850849e+03 -1.018791653922106207e+03 -1.277360341385245420e+03 -7.214546700089192655e+02 -1.464910309235488512e+03 -1.008702946876043370e+03 -7.793644894875219507e+02 -9.547698106872090875e+02 -1.295505686597410886e+03 -2.347728280374832366e+02 3.503239721064073819e+01 4.626493662180367750e+01 6.321733545919921227e+01 -2.481043535682620700e+02 -3.459261128551382853e+02 -3.256316473674579015e+01 -1.873890224623661993e+02 -2.170189012657692729e+02 1.165166735400360523e+02 2.552358252240694014e-02 4.153086955409474257e+00 1.092160995154239345e+02 2.399861487706352747e+01 1.939479904906685306e+02 1.043346336413089688e+02 1.757071192535860291e+02 6.539134860989373976e+01 2.036455004908880255e+02 2.144581469643160858e+02 -2.432268712375209532e+02 -2.638717487367615036e+02 1.329699000390565189e+01 3.758696162421851028e+01 -2.217156698730024686e+02 -1.005145995015756597e+02 7.322301914511359655e+01 -1.122439762404152134e+03 2.476366639641979361e+02 -5.074454532186021538e+02 -5.801129058231335875e+02 -8.423220507623373123e+02 3.276257367037575818e+02 4.348361738872880267e+01 -5.844432856727216858e+02 -1.132156639311060218e+02 1.177540115263359155e+02 -1.604849590815886415e+02 1.716361779161645700e+02 -2.993440682622341455e+02 -5.945529126800173003e+01 -2.345522034346961675e+02 8.890445733438826892e+01 -2.170015560123626699e+02 1.160311365686671081e+02 2.594773485318901294e+02 -1.086002275056816444e+02 -1.312786588636075535e+01 -2.341879677687733192e+02 3.241794232221948846e+01 2.282161298663912987e+02 -2.022076115698859553e+02 6.590385939901861434e+01 2.490757938950104915e+02 2.076037589269739669e+02 4.274757352979167422e+02 3.014261051566491005e+02 2.649944513244331006e+02 -3.473699256847583570e+02 2.905115124986170940e+02 -2.176294194967957480e+02 -1.450696592868066261e+02 -3.645203897183249637e+02 3.633957586249637757e+02 -3.366049485769750618e+02 -5.581409728082326183e+01 1.153071052401093652e+02 -3.756467042333168820e+02 5.009705827598517089e+02 2.600028480545017118e+01 3.002820933457141450e+02 -1.106114629142247026e+02
